tree
version=v3
num_class=6
num_tree_per_iteration=6
label_index=0
max_feature_idx=114
objective=multiclass num_class:6
feature_names=MI_dir_L5_weight MI_dir_L5_mean MI_dir_L5_variance MI_dir_L3_weight MI_dir_L3_mean MI_dir_L3_variance MI_dir_L1_weight MI_dir_L1_mean MI_dir_L1_variance MI_dir_L0.1_weight MI_dir_L0.1_mean MI_dir_L0.1_variance MI_dir_L0.01_weight MI_dir_L0.01_mean MI_dir_L0.01_variance H_L5_weight H_L5_mean H_L5_variance H_L3_weight H_L3_mean H_L3_variance H_L1_weight H_L1_mean H_L1_variance H_L0.1_weight H_L0.1_mean H_L0.1_variance H_L0.01_weight H_L0.01_mean H_L0.01_variance HH_L5_weight HH_L5_mean HH_L5_std HH_L5_magnitude HH_L5_radius HH_L5_covariance HH_L5_pcc HH_L3_weight HH_L3_mean HH_L3_std HH_L3_magnitude HH_L3_radius HH_L3_covariance HH_L3_pcc HH_L1_weight HH_L1_mean HH_L1_std HH_L1_magnitude HH_L1_radius HH_L1_covariance HH_L1_pcc HH_L0.1_weight HH_L0.1_mean HH_L0.1_std HH_L0.1_magnitude HH_L0.1_radius HH_L0.1_covariance HH_L0.1_pcc HH_L0.01_weight HH_L0.01_mean HH_L0.01_std HH_L0.01_magnitude HH_L0.01_radius HH_L0.01_covariance HH_L0.01_pcc HH_jit_L5_weight HH_jit_L5_mean HH_jit_L5_variance HH_jit_L3_weight HH_jit_L3_mean HH_jit_L3_variance HH_jit_L1_weight HH_jit_L1_mean HH_jit_L1_variance HH_jit_L0.1_weight HH_jit_L0.1_mean HH_jit_L0.1_variance HH_jit_L0.01_weight HH_jit_L0.01_mean HH_jit_L0.01_variance HpHp_L5_weight HpHp_L5_mean HpHp_L5_std HpHp_L5_magnitude HpHp_L5_radius HpHp_L5_covariance HpHp_L5_pcc HpHp_L3_weight HpHp_L3_mean HpHp_L3_std HpHp_L3_magnitude HpHp_L3_radius HpHp_L3_covariance HpHp_L3_pcc HpHp_L1_weight HpHp_L1_mean HpHp_L1_std HpHp_L1_magnitude HpHp_L1_radius HpHp_L1_covariance HpHp_L1_pcc HpHp_L0.1_weight HpHp_L0.1_mean HpHp_L0.1_std HpHp_L0.1_magnitude HpHp_L0.1_radius HpHp_L0.1_covariance HpHp_L0.1_pcc HpHp_L0.01_weight HpHp_L0.01_mean HpHp_L0.01_std HpHp_L0.01_magnitude HpHp_L0.01_radius HpHp_L0.01_covariance HpHp_L0.01_pcc
feature_infos=[1:304.38209857998885] [60:867.13236243276594] [0:173167.1074809042] [1:407.90673416698098] [60.000000000000007:820.88631718013232] [0:173184.84331571372] [1:965.20015405073195] [60:701.20702118020199] [0:173077.04344651281] [1:7964.1720324273219] [60:383.96497051718018] [0:135697.35032420853] [1:41599.109255494579] [60:360.00091980000002] [0:119265.6845117362] [1:304.38209857998885] [60:867.13236243276594] [0:173167.1074809042] [1:407.90673416698098] [60.000000000000007:820.88631718013232] [0:173184.84331571372] [1:965.20015405073195] [60:701.20702118020199] [0:173077.04344651281] [1:7964.1720324273219] [60:383.96497051718018] [0:135697.35032420853] [1:41599.109255494579] [60:347.70308670000009] [0:119265.6845117362] [1.0000000000000002:304.29245797659951] [60:909.00000000000034] [0:409.31392527148432] [60:1456.0273150207156] [0:485065.52724769048] [-1763.194348:3591.8960369999995] [-0.465335149:0.70143878223882083] [1:407.58510982970324] [60.000000000000007:909] [0:418.92656860338167] [60.000000000000007:1456.0271361820471] [0:485806.5780431251] [-1816.6253160000001:3898.881801] [-0.47913539700000002:0.7091186766015789] [1:963.0413537851897] [60.000000000000007:909.00000000000034] [0:423.87464618447257] [60:1455.8700137071105] [0:484819.51509768405] [-4077.540567:4245.4771010000004] [-0.49302689799999999:0.81105049096496962] [1:7944.986856476482] [60.000000000000007:909] [0:424.19101582312965] [60:1381.1984587073553] [0:484968.8020894074] [-84674.509143599949:59763.075774886973] [-0.67569528800000001:1.1918472179963515] [1:41469.154648142816] [60:909.00000000000034] [0:367.57519073017096] [60:1278.2653510252301] [0:483190.41053786967] [-23828.772271188041:134513.83150811368] [-0.57236745099999997:1.5274464130358238] [1.0000000000000002:304.29245797659951] [0.0010489215292190906:1505914346.587791] [0:5.6691606215308838e+17] [1:407.58510982970324] [0.0012527670176599439:1505914346.587791] [0:5.67e+17] [1:963.04135378519197] [0.0015449938113872776:1505914346.587791] [0:5.67e+17] [1:7944.9868564766239] [0.91543122507116004:1505914346.587791] [0:5.67e+17] [1:41469.154648140735] [9.3259699630000004:1505914346.587791] [0:5.67e+17] [1.0000000000000002:10.939343842652283] [60.000000000000007:909.00000000000034] [0:203.28137219991081] [60:1456.0273150207156] [0:41323.316283478664] [-1766.2264300000004:3606.0068379999998] [-0.45664135529875299:0.50425298299999999] [1.0000000000000002:10.963558252262409] [60.000000000000007:909] [0:201.21048016733283] [60:1456.0271361820471] [0:40485.657329168636] [-1592.6232419999999:3932.665994] [-0.26526149999999998:0.58378949599999996] [1.0000000000000004:10.991451115710532] [60.000000000000007:909.00000000000034] [0:198.88845931858367] [60:1455.8700137071105] [0:39556.619250119911] [-1085.8074859999999:4255.0466590000015] [-0.19873147999999999:0.70007867900000009] [1:15.519013095528994] [60.000000000000007:909] [0:203.99387037276963] [60:1381.1984587073553] [0:321425.85264593002] [-4338.2462335254249:60368.942049002784] [-0.14204234499999999:0.95546676716679957] [1:136.21011865142503] [59.999999999999979:909.00000000000034] [0:203.6721806980479] [60:1278.2653510252301] [0:418177.32193738571] [-689.98228689999996:136584.10202326349] [-0.17029449734457874:1.5319811068418401]
tree_sizes=1880 3360 3325 3374 1889 2306 3389 3376 3387 3373 3484 3450 3397 3391 3386 3383 3494 3464 3398 3381 3360 3379 3492 3463 3396 3403 3366 3382 3502 3465 3421 3401 3376 3372 3496 3473 3441 3394 3374 3359 3501 3476 3427 3405 3387 3377 3486 3480 3437 3407 3393 3390 3498 3489 3433 3375 3397 3387 3493 3463 3412 3383 3392 3410 3457 3456 3436 3405 3392 3376 3496 3465 3415 3389 3392 3384 3483 3470 3421 3387 3401 3402 3480 3452 3445 3426 3417 3373 3478 3485 3446 3421 3387 3389 3491 3475 3425 3427 3392 3383 3493 3475 3469 3419 3419 3391 3483 3483 3460 3404 3391 3416 3494 3469 3459 3419 3411 3402 3485 3458 3453 3427 3425 3408 3497 3483 3467 3424 3407 3422 3501 3474 3462 3399 3418 3407 3481 3466 3439 3403 3406 3428 3488 3464 3442 3408 3418 3404 3484 3481 3446 3420 3426 3406 3486 3481 3457 3422 3431 3432 3502 3461 3456 3417 3415 3431 3499 3464 3472 3424 3440 3418 3492 3494 3458 3409 3430 3421 3479 3461 3495 3405 3437 3407 3504 3462 3463 3401 3459 3387 3496 3463 3468 3405 3427 3408 3483 3466 3464 3410 3438 3419 3484 3451 3455 3403 3440 3427 3500 3469 3459 3414 3418 3429 3491 3477 3450 3406 3429 3433 3496 3443 3444 3410 3447 3428 3491 3455 3446 3416 3414 3438 3503 3453 3432 3411 3430 3431 3497 3475 3463 3411 3429 3414 3470 3480 3457 3431 3461 3416 3466 3481 3443 3415 3441 3410 3470 3470 3449 3415 3415 3418 3467 3468 3457 3408 3422 3451 3486 3478 3450 3435 3414 3412 3475 3474 3433 3423 3429 3425 3476 3467 3429 3430 3444 3432 3456 3469 3425 3411 3423 3415 3483 3472 3426 3438 3447 3428 3448 3472

Tree=0
num_leaves=17
num_cat=0
split_feature=13 101 8 78 83 29 63 70 51 29 11 1 66 3 0 1
split_gain=104994 295.35 118.542 89.1229 13.5363 9.01751 2.71556 2.0712 3.22522 0.705695 0.292154 0.556216 0.000711345 3.23306 1.45519e-11 5.68434e-14
threshold=88.097506235000012 6.9351514635596336 19177.034972701626 112.20286030000001 314.00000000000006 173.0198776135681 -6.2587972738069571e-15 40894102929.245674 2.9384885265000009 198.41389468999026 5838.8895684974077 75.255121907235647 1505912794.370261 1.4734180205000003 5.3516900475956364 101.01070460000001
decision_type=2 2 2 2 2 2 2 2 2 2 2 2 2 2 2 2
left_child=3 2 4 -1 5 -2 -5 9 -9 -7 14 -12 13 -8 -11 -16
right_child=1 -3 -4 6 -6 7 12 8 -10 10 11 -13 -14 -15 15 -17
leaf_value=-1.8089130733708538 -1.8735080011505165 -2.0211535503611739 -2.0211535503611739 -1.9871950740427229 -1.8938092641669819 -1.8265997797867137 -1.9807267928392083 -1.8089130733708538 -1.861973192618434 -1.8089130733708538 -1.8301371210698858 -1.8089130733708538 -2.0211535503611739 -2.0211535503611739 -1.8089130733708538 -1.8089130733708538
leaf_weight=4.9472184330224982 5.4183820933103553 16.490728110074997 6.5962912440299979 5.8895457535982123 4.7116366028785697 5.6539639234542838 4.9472184330224982 7.3030367344617826 4.7116366028785706 6726.8035779297352 4.7116366028785697 8.9521095454692823 28115.277936697006 14747.186985179782 12.957000657916071 8.0097822248935682
leaf_count=21 23 70 28 25 20 24 21 31 20 28554 20 38 119344 62599 55 34
internal_value=0 3.64793 3.65819 -0.578292 3.66231 3.66348 -0.578781 3.66451 3.24968 3.66525 3.66555 3.51947 -0.578875 -0.578697 3.66584 3.66584
internal_weight=0 6812.32 6795.83 42878.2 6789.23 6784.52 42873.3 6779.1 12.0147 6767.09 6761.43 13.6637 42867.4 14752.1 6747.77 20.9668
internal_count=210927 28917 28847 182010 28819 28799 181989 28776 51 28725 28701 58 181964 62620 28643 89
shrinkage=1


Tree=1
num_leaves=31
num_cat=0
split_feature=51 63 13 70 24 60 54 1 27 63 66 63 50 24 10 35 13 7 8 6 31 20 52 6 70 63 63 27 48 27
split_gain=64205.8 17883.6 4672.99 3932.12 2206.92 1301.29 1094.6 1056 1315.02 2525.47 761.245 731.954 301.655 256.628 214.986 198.537 348.507 166.962 136.209 121.435 232.201 117.19 372.026 401.142 198.106 274.547 108.757 71.3388 66.3313 37.8145
threshold=454.40302857060743 3.5845711547077245e-16 74.090447360403729 1.2567334537705214e-05 7086.6997892063036 6.3279798797182092e-06 95.268042910516343 74.218153454136285 24817.019494107368 -8.3217188953736456e-16 0.012225906314069631 -8.0939362256455778e-16 -8.5506937872407779e-10 2525.9976831731242 74.546464455717185 2.0919258216970168e-16 74.505473598730191 74.226332597097482 1.585819034550241 364.82767764655637 73.999999999999929 14.243653543966959 73.998975546401354 748.45608610849479 1.4900737812268424e-05 -7.4417512728197826e-16 4.0199825325389211e-27 31472.128285827774 2.5044149551169421e-11 24328.809215595375
decision_type=2 2 2 2 2 2 2 2 2 2 2 2 2 2 2 2 2 2 2 2 2 2 2 2 2 2 2 2 2 2
left_child=13 2 4 11 5 6 18 10 9 -9 12 -4 17 -1 -13 19 -17 -5 28 20 -14 -21 24 -24 25 -23 27 -12 -2 -15
right_child=1 -3 3 7 -6 -7 -8 8 -10 -11 26 14 15 29 -16 16 -18 -19 -20 21 -22 22 23 -25 -26 -27 -28 -29 -30 -31
leaf_value=-1.8410464276111358 -1.8400551643420922 -1.8410532982725512 -1.6582284333434811 -1.6582284333434811 -1.8410532982725512 -1.6582284333434811 -1.660431142559494 -1.6582284333434811 -1.6582284333434811 -1.8410532982725512 -1.8410532982725512 -1.6582284333434811 -1.8410532982725512 -1.7557350279723185 -1.8410532982725512 -1.6582284333434811 -1.8410532982725512 -1.8410532982725512 -1.6582284333434811 -1.6583957230755628 -1.6582284333434811 -1.6630608086279499 -1.6582284333434811 -1.8410532982725512 -1.658755458033389 -1.8262910420981542 -1.6582284333434811 -1.6582284333434811 -1.7161972929551375 -1.6582284333434811
leaf_weight=43663.919139504433 300.5608719587326 2432.1090394258499 67.550987601280212 18.870518803596497 668.67273151874542 429.37267422676086 136.1959183216095 351.70271277427673 618.62483382225037 408.04078340530396 75.208589434623718 16.682632565498352 27.348577976226807 24.613720178604126 444.96136367321014 67.004016041755676 42.663781642913818 36.920580267906189 11.212916970252989 6575.4186028242111 47.586525678634644 62.081272006034851 54.697155952453613 66.45704448223114 948.72216999530792 44.031210541725159 10.665945410728453 5.7432013750076285 11.212916970252989 16.682632565498352
leaf_count=159657 1099 8893 247 69 2445 1570 498 1286 2262 1492 275 61 100 90 1627 245 156 135 41 24043 174 227 200 243 3469 161 39 21 41 61
internal_value=0 1.86683 2.38588 2.63701 0.774608 1.80733 0.637101 2.78538 1.97636 1.09497 2.92333 -0.0156862 2.95619 -0.595208 -0.465566 2.97248 1.63632 0.639054 -0.365495 2.9912 1.72431 3.00345 2.7127 1.05309 2.90332 1.6075 0.0571928 -0.338289 -0.488649 1.89646
internal_weight=0 13980.3 11548.2 9990.98 1557.23 888.555 459.183 9461.79 1378.37 759.743 8083.42 529.195 7991.8 43705.2 461.644 7936.01 109.668 55.7911 322.987 7826.34 74.9351 7751.41 1175.99 121.154 1054.83 106.112 91.6177 80.9518 311.774 41.2964
internal_count=210927 51119 42226 36532 5694 3249 1679 34597 5040 2778 29557 1935 29222 159808 1688 29018 401 204 1181 28617 274 28343 4300 443 3857 388 335 296 1140 151
shrinkage=1


Tree=2
num_leaves=31
num_cat=0
split_feature=79 63 51 58 7 47 54 70 59 36 57 7 6 13 57 36 46 6 14 36 1 51 9 55 8 0 41 81 66 0
split_gain=32567 38870.9 7290.83 6370.83 10194.1 4147.17 4185.22 299.42 253.721 138.361 94.1735 81.1386 62.5682 54.5215 83.1697 44.7772 25.599 140.896 20.0342 15.1688 11.5845 7.01088 3.00893 2.41123 2.92254 0.337134 0.31961 0.310153 0.131315 1.45519e-11
threshold=63221550758893.352 2.9175045813692681e-16 2317.7568299672407 20714.290729668417 74.110435234942784 95.268042910424683 95.268042910516343 592515245778315.62 74.000000000000071 1.8427204014680256e-17 -1.7743429533930475e-16 74.055603801068983 809.43334592937856 74.595664095036497 0.85058729611429429 -3.7982767328763716e-16 4.6218306747974015e-06 593.72319668181274 222.07925169711015 2.6893268349079893e-09 74.077270656405261 7567.9117834583403 4754.8510016123937 1.91372437785687e-11 1.3232466002032199 185.05500544208749 1.9158843397137977e-11 66.920229405000015 1505913585.3132544 173.33110134958707
decision_type=2 2 2 2 2 2 2 2 2 2 2 2 2 2 2 2 2 2 2 2 2 2 2 2 2 2 2 2 2 2
left_child=28 3 13 5 -5 19 8 12 10 18 15 -10 22 14 20 -7 23 -18 -9 21 -3 27 25 24 -12 -8 -25 -2 -1 -4
right_child=1 2 29 4 -6 6 7 9 11 -11 16 -13 -14 -15 -16 -17 17 -19 -20 -21 -22 -23 -24 26 -26 -27 -28 -29 -30 -31
leaf_value=-2.5587352809863719 -2.5432128927115945 -2.4392128912705853 -2.2172427389412674 -2.5587352809863719 -2.2172427389412674 -2.5587352809863719 -2.5587352809863719 -2.4069608178552144 -2.251391993145778 -2.2172427389412674 -2.2172427389412674 -2.5587352809863719 -2.3453024422081814 -2.5587352809863719 -2.2172427389412674 -2.2855412473502885 -2.5587352809863719 -2.2172427389412674 -2.5587352809863719 -2.4500785630629296 -2.5587352809863719 -2.5001937023500682 -2.5075113996796063 -2.2172427389412674 -2.2855412473502885 -2.5416606538841164 -2.2335042885624627 -2.5587352809863719 -2.5570855585610333 -2.2172427389412674
leaf_weight=24034.200020879507 3.2211538255214682 2.9283216595649701 943.50523871183395 441.73732234537601 432.51310911774635 3.0747377425432205 226.50568036735058 3.9532342404127139 2.928321659564971 9.8098775595426542 3.3675699084997168 8.052884563803671 3.5139859914779654 167.35358284413815 2.928321659564971 2.928321659564971 3.6604020744562176 17.277097791433334 4.8317307382822037 3.2211538255214682 6.5887237340211868 5.1245629042387 2.928321659564971 174.82080307602882 2.9283216595649719 2.928321659564971 3.0747377425432196 3393.3391391038895 121.23251670598984 848.62761694192886
leaf_count=164150 22 20 6444 3017 2954 21 1547 27 20 67 23 55 24 1143 20 20 25 118 33 22 45 35 20 1194 20 20 21 23176 828 5796
internal_value=0 1.94473 5.6776 0.396924 2.83569 -0.152374 2.61049 -0.158091 5.7824 3.70529 6.02615 1.09596 -0.462652 -0.393035 1.62628 2.1221 6.1404 5.09262 0.822767 -0.539091 0.192319 -0.541145 -0.525988 6.2595 5.65131 -0.538844 6.28103 -0.542909 -0.543037 6.28665
internal_weight=0 6727.67 1971.93 4755.74 874.25 3881.49 476.584 254.471 222.113 18.5948 211.132 10.9812 235.876 179.799 12.4454 6.00306 205.129 20.9375 8.78496 3404.91 9.51705 3401.68 232.362 184.191 6.29589 229.434 177.896 3396.56 24155.4 1792.13
internal_count=210927 45949 13468 32481 5971 26510 3255 1738 1517 127 1442 75 1611 1228 85 41 1401 143 60 23255 65 23233 1587 1258 43 1567 1215 23198 164978 12240
shrinkage=1


Tree=3
num_leaves=31
num_cat=0
split_feature=14 76 9 33 14 33 76 113 11 45 61 87 57 0 16 99 16 83 16 13 0 0 0 0 0 2 0 2 13 0
split_gain=94773.9 4231.89 2838.9 208.442 96.2289 1722.65 39.5835 43.8624 20.2613 11.0287 1339.65 6.72125 4.84194 4.36375 3.27752 1.33661 1.19985 0.33432 0.310118 0.00111178 0.333289 1.45519e-11 9.09495e-13 9.09495e-13 4.54747e-13 4.54747e-13 1.13687e-13 1.13687e-13 1.13687e-13 5.68434e-14
threshold=1107.2925917956225 2.3762795324898858e+17 522.89093430843843 84.852815225000015 402.34515256472838 76.000000000000014 9302272527907714 1.7518756301876998e-28 330.86142187896979 73.999999999999929 95.266995181346559 1.0000000000133948 0.45780245500000011 5.3516900475956364 82.15668431335591 1.8800000000000001e-35 74.014709046715225 101.67325285000003 74.023768166817504 74.799072497983474 4.5330543465000011 158.96262462184549 182.95027604431502 163.4827466028797 96.128145502927353 5.4070060996627953 179.03655712171266 1.4114744298649387 91.161475355000007 176.31941350511838
decision_type=2 2 2 2 2 2 2 2 2 2 2 2 2 2 2 2 2 2 2 2 2 2 2 2 2 2 2 2 2 2
left_child=1 4 -2 11 6 18 9 8 -8 17 13 -3 29 -11 -5 -12 -15 19 -6 22 28 -4 23 -1 25 -13 -25 -18 -21 -7
right_child=2 3 21 14 5 12 7 -9 -10 10 15 24 -14 16 -16 -17 27 -19 -20 20 -22 -23 -24 26 -26 -27 -28 -29 -30 -31
leaf_value=-2.5359247951306321 -2.5359247951306321 -2.2711587587452349 -2.2014834860122354 -2.5225471427658963 -2.2182055514681553 -2.5359247951306321 -2.5359247951306321 -2.3209268106973773 -2.4021482714832736 -2.2683717478359151 -2.5359247951306321 -2.2014834860122354 -2.4751172843818328 -2.2349276169240753 -2.4523144678510329 -2.5024806642187922 -2.2014834860122354 -2.5192027296747121 -2.2014834860122354 -2.5359247951306321 -2.5192027296747121 -2.2014834860122354 -2.5359247951306321 -2.5359247951306321 -2.2014834860122354 -2.2014834860122354 -2.5359247951306321 -2.2014834860122354 -2.5359247951306321 -2.5359247951306321
leaf_weight=19879.273333981633 65.183337271213531 3.5880736112594596 2386.8164668232203 3.7375766783952704 2.9900613427162162 556.45041587948799 11.661239236593248 4.186085879802703 3.7375766783952704 2.9900613427162197 3458.9029612541199 55.316134840250015 3.2890674769878379 2.9900613427162197 2.990061342716217 2.9900613427162162 8.5216748267412203 2.9900613427162162 38.123282119631767 244.13850863277912 2.9900613427162162 3.139564409852027 1034.8602307140827 2451.5512948930264 14.800803646445273 27.807570487260818 473.77521975338459 17.49185885488987 620.73673474788666 146.21399965882301
leaf_count=132969 436 24 15965 25 20 3722 78 28 25 20 23136 370 22 20 20 20 57 20 255 1633 20 21 6922 16398 99 186 3169 117 4152 978
internal_value=0 -0.503093 5.96695 5.73803 -0.526411 -0.172169 -0.535787 0.885382 0.10511 -0.536774 -0.484186 6.09528 -0.538625 5.957 0.347553 -0.543713 6.07558 -0.54421 6.12021 -0.54425 -0.543138 6.14454 -0.544291 -0.544291 6.14454 6.14454 -0.544291 6.14454 -0.544291 -0.544291
internal_weight=0 29079.1 2455.14 108.24 28970.9 747.067 28223.8 19.5849 15.3988 28204.2 3493.89 101.513 705.953 31.9937 6.72764 3461.89 29.0036 24710.3 41.1133 24707.3 867.865 2389.96 23839.5 22804.6 97.9245 83.1237 2925.33 26.0135 864.875 702.664
internal_count=210927 194505 16422 724 193781 4997 188784 131 103 188653 23370 679 4722 214 45 23156 194 165283 275 165263 5805 15986 159458 152536 655 556 19567 174 5785 4700
shrinkage=1


Tree=4
num_leaves=17
num_cat=0
split_feature=69 66 13 51 63 3 5 3 66 79 103 12 67 2 66 0
split_gain=104563 215.528 18.4478 45.9102 27.1185 4.96877 2.95052 2.39566 0.382827 0.318941 0.175017 4.38733 0.0126585 0.120417 1.45519e-11 1.42109e-14
threshold=1505913477.2059817 1505913536.4491172 95.660688105000006 3.5983367076107666 55.80018728000001 1.8651342790000001 7856.7701240429024 2.0907300960000001 1505913585.3132544 4.9679913669619123e+17 2.2342480279364436e-06 28.506108765000004 210708746378969.53 0.17131384882350179 1505913582.1353939 176.02365475055848
decision_type=2 2 2 2 2 2 2 2 2 2 2 2 2 2 2 2
left_child=2 -2 10 6 5 -5 9 -6 14 -4 12 -12 -1 -14 -3 -13
right_child=1 8 3 4 7 -7 -8 -9 -10 -11 11 15 13 -15 -16 -17
leaf_value=-1.4169384973111092 -1.3269655651063905 -1.2838464617479026 -1.4169384973111092 -1.2838464617479028 -1.4169384973111092 -1.3370832759731852 -1.3836654884203075 -1.3770108866421471 -1.2856145926551434 -1.4080656949402286 -1.3789122014359072 -1.4169384973111092 -1.4102838955329489 -1.4169384973111092 -1.2838464617479026 -1.4169384973111092
leaf_weight=58875.423813611269 294.53302621841431 18078.842883557081 99.930848181247711 10.519036650657656 7.5135976076126081 7.513597607612609 7.513597607612609 7.5135976076126099 311.06294095516205 11.270396411418913 7.8892774879932395 188.96697983145714 7.513597607612609 71.379177272319794 1245.7544833421707 7.8892774879932395
leaf_count=156717 784 48123 266 28 20 20 20 20 828 30 21 503 20 190 3316 21
internal_value=0 1.98127 -0.666261 -0.31807 0.724144 1.55093 -0.608308 -0.267996 1.99401 -0.649287 -0.667154 -0.637968 -0.667255 -0.654597 1.99457 -0.667272
internal_weight=0 19930.2 59310.8 151.775 33.0598 18.0326 118.715 15.0272 19635.7 111.201 59159.1 204.746 58954.3 78.8928 19324.6 196.856
internal_count=210927 53051 157876 404 88 48 316 40 52267 296 157472 545 156927 210 51439 524
shrinkage=1


Tree=5
num_leaves=21
num_cat=0
split_feature=13 69 66 101 13 61 35 6 7 48 12 14 69 1 43 12 66 69 1 0
split_gain=36454.8 68142.1 197.718 7.15411 28.4387 33.4417 5.38039 2.94032 1.94523 2.59794 1.87972 0.324742 0.103339 0.383472 0.0901053 0.396907 0.0821748 1.81899e-12 1.42109e-14 3.55271e-15
threshold=63.250494270000004 1505913477.2059817 1505913536.4491172 2.4748759040000006 91.610970865000013 135.86103839586022 8.1112810869220816e-22 5.0816386370000011 137.87097317951748 2.5044149551169421e-11 31.465542300000003 2351.797196032077 1505913248.9527848 74.019331988860529 -1.2731124772520067e-08 31.318665600000003 1505913423.341831 1505913580.5528762 74.286591334027378 58.904788982189068
decision_type=2 2 2 2 2 2 2 2 2 2 2 2 2 2 2 2 2 2 2 2
left_child=1 16 -3 8 10 6 -6 -7 12 11 -5 -10 14 -14 15 -2 -1 -4 -12 -15
right_child=3 2 17 4 5 7 -8 -9 9 -11 18 -13 13 19 -16 -17 -18 -19 -20 -21
leaf_value=-1.1570626530619308 -1.2658313378629777 -1.2385050875985717 -1.2780091716461479 -1.2536535040798076 -1.2110310858387121 -1.2780091716461479 -1.1562308338144465 -1.2432153608370904 -1.2780091716461479 -1.2414756702966374 -1.2780091716461479 -1.2658313378629777 -1.2658313378629777 -1.2780091716461479 -1.2780091716461479 -1.2780091716461479 -1.1562308338144465 -1.2780091716461479 -1.2780091716461479 -1.2780091716461479
leaf_weight=300.54607200622559 8.211641311645506 321.48575735092163 19090.834303379059 8.211641311645506 8.2116413116455096 20.529103279113773 9.8539695739746076 8.6222233772277814 16.423282623291016 8.211641311645506 82.526995182037354 8.2116413116455096 8.211641311645506 18.476192951202396 39607.62012052536 36.131221771240234 24523.656195163727 2362.8997874259949 142.06139469146729 11.906879901885985
leaf_count=732 20 783 46497 20 20 50 24 21 40 20 201 20 20 45 96467 88 59729 5755 346 29
internal_value=0 0.600011 -0.69113 -0.70137 -0.542091 0.165537 1.23459 -0.496973 -0.702493 -0.459238 -0.685613 -0.62161 -0.702694 -0.650975 -0.702745 -0.657692 1.73257 -0.702795 -0.702795 -0.702795
internal_weight=0 46599.4 21775.2 40003.4 280.017 47.2169 18.0656 29.1513 39723.4 32.8466 232.8 24.6349 39690.6 38.5947 39652 44.3429 24824.2 21453.7 224.588 30.3831
internal_count=210927 113496 53035 97431 682 115 44 71 96749 80 567 60 96669 94 96575 108 60461 52252 547 74
shrinkage=1


Tree=6
num_leaves=31
num_cat=0
split_feature=13 101 8 78 73 55 63 69 83 48 69 52 14 33 6 66 94 12 76 43 9 8 69 11 43 12 62 33 3 25
split_gain=86960.8 210.817 85.0283 75.7226 11.6238 14.3951 2.68498 1.29894 1.98404 1.16253 0.0786553 0.0629018 0.0123147 0.00596011 0.00224981 0.0956679 0.000548813 0.000604639 0.000252408 0.000530996 0.00015122 0.000333441 0.000121588 9.16926e-05 7.71421e-05 0.000172166 3.71487e-05 0.000222306 2.46584e-05 2.45531e-05
threshold=88.097506235000012 6.9351514635596336 19177.034972701626 112.20286030000001 6018904693.8751364 435.58052350000008 -6.2587972738069571e-15 2931177.2022233275 95.361213748412013 480.20495155238501 1.2930425980613001 102.30063779503213 198.41389468999026 60.000353742322467 1.0000000000181986 1505913423.341831 1.9992265035000003 32.682666925000007 445541.42677081464 5.2273462377910927e-17 2.6134285670000001 0.16101534700000003 1505913477.2059817 1247.659472623144 -1.2731124772520067e-08 32.058220100000007 815.37762440000017 84.852815175000003 1.4734180205000003 90.992310905000025
decision_type=2 2 2 2 2 2 2 2 2 2 2 2 2 2 2 2 2 2 2 2 2 2 2 2 2 2 2 2 2 2
left_child=3 2 4 -1 7 -6 -5 10 13 -7 -2 12 -12 -9 15 -8 18 -18 23 20 21 -20 -17 24 25 -14 -26 -28 -16 -22
right_child=1 -3 -4 6 5 9 14 8 -10 -11 11 -13 16 -15 28 22 17 -19 19 -21 29 -23 -24 -25 26 -27 27 -29 -30 -31
leaf_value=0.15261370610979083 0.14832477583027445 -0.028818662129464958 -0.028845378061205691 0.0049240483069045056 0.047561212480934124 0.12715312447458815 -0.027598096036963889 0.15261370610979075 0.12321809511817057 0.1589886462985684 0.15489083400663345 0.15737759974535567 0.1529519405294032 0.15485255586557461 -0.028928526330151125 -0.028797209823738536 0.15334274098341125 0.15263079426338436 0.15261370610979083 0.15305492872993121 0.15267013947888416 0.15309419379496034 -0.028804082193169905 0.15281427974277409 0.15261398541071294 0.15261370610979083 0.15293523272503814 0.15261370610979083 -0.028816662560749856 0.15261922256322222
leaf_weight=5.753068506717681 10.661728411912916 16.091259971261024 6.4696472585201255 5.9022546708583823 5.8266887366771725 5.414984852075575 166.50830686092377 5.4791128635406512 9.4864057898521406 6.0957326591014862 5.9555208086967459 6.9479514360427848 5.4693643450737026 6.4982157945632935 4.9278926849365225 13674.740575045347 5.4581334292888624 6.5743434429168701 9.0405362248420698 9.0195594131946546 35.603643804788589 6.011797457933425 12158.348249286413 5.7469913661479941 7622.5305969119072 12.054048299789427 6.2903206348419181 36.984011828899384 15730.834286719561 70.6785007417202
leaf_count=21 39 70 28 25 22 20 727 20 36 23 22 26 20 24 21 59729 20 24 33 33 130 22 53035 21 27824 44 23 135 68452 258
internal_value=0 3.03952 3.04689 -0.57544 3.04986 2.23195 -0.57594 3.05166 2.80599 2.88025 3.05233 3.05245 3.05236 3.07657 -0.576036 -0.575855 3.05233 3.05907 3.05232 3.0537 3.05315 3.05611 -0.576009 3.05229 3.05229 3.05439 3.05228 3.05321 -0.576334 3.05273
internal_weight=0 7916.39 7900.3 41747 7893.83 17.3374 41741.3 7876.49 21.4637 11.5107 7855.03 7844.37 7837.42 11.9773 41735.4 25999.6 7831.46 12.0325 7819.43 130.354 121.334 15.0523 25833.1 7689.08 7683.33 17.5234 7665.8 43.2743 15735.8 106.282
internal_count=210927 28917 28847 182010 28819 65 181989 28754 80 43 28674 28635 28609 44 181964 113491 28587 44 28543 476 443 55 112764 28067 28046 64 27982 158 68473 388
shrinkage=0.05


Tree=7
num_leaves=31
num_cat=0
split_feature=51 63 28 70 9 56 9 60 54 64 63 49 12 9 35 9 9 10 10 8 59 42 1 10 9 48 3 31 57 56
split_gain=57210.6 14519.8 3482.56 2981.46 1912.01 1197.54 1122.18 981.342 902.474 625.809 621.235 361.817 885.867 585.967 330.41 368.575 235.432 199.714 186.966 117.687 110.224 96.6205 109.881 78.8911 356.063 60.3975 56.9996 127.962 34.5172 21.7452
threshold=454.40302857060743 3.5845711547077245e-16 74.090447360403729 1.2567334537705214e-05 7086.6997892063036 5.8946014003301281e-18 7337.7938798964487 6.3279798797182092e-06 95.268042910516343 7.226458690945289e-10 -8.0939362256455778e-16 -4.5105559620839207e-17 21026.577060256266 7464.3950866909727 2.0919258216970168e-16 7464.3950866909727 2527.7306856085766 74.949091692484771 74.546464455717185 1.585819034550241 74.000000000000071 -1.6963222508210994e-15 74.178409789057227 75.031514851223037 7200.897712540127 2.5044149551169421e-11 60.038329161057185 73.999999999999829 0.85058729611429429 -1.4307407958712609e-28
decision_type=2 2 2 2 2 2 2 2 2 2 2 2 2 2 2 2 2 2 2 2 2 2 2 2 2 2 2 2 2 2
left_child=16 2 4 10 7 6 20 8 19 11 -4 12 -7 -14 21 -16 -1 -8 -12 25 -5 22 -13 26 -25 -2 27 -23 29 -18
right_child=1 -3 3 5 -6 9 17 -9 -10 -11 18 14 13 -15 15 -17 28 -19 -20 -21 -22 23 -24 24 -26 -27 -28 -29 -30 -31
leaf_value=-0.029690534050310569 -0.028697383143105906 -0.029712498619572182 0.13133092751360223 -0.029335099336687643 -0.029712887992095934 0.13138191257793969 0.1313598806728887 0.1313354580824698 0.12967632196521034 -0.022126617761409288 0.13133092751360223 0.13134870522874706 -0.029755323026699892 0.13138654224249427 -0.029716080367488379 0.13133092751360223 0.012889006876668899 -0.029782579473089706 -0.029712498619572182 0.13165390642187472 0.12773370450256355 -0.029712498619572182 -0.029794258140186838 0.1313995646186237 -0.029737053930604412 0.085348705096639166 0.13125804331982713 0.13133092751360223 -0.030111381681343655 0.11798503902705165
leaf_weight=42519.557919561863 293.60191017389297 2373.5096574127674 76.136434823274612 262.47261050343513 652.59729096293449 517.69729918241501 260.73102378845215 483.93136659264565 153.23513031005859 71.98271432518959 18.802925199270248 22.191318511962891 185.65146315097809 81.042097508907318 69.161059111356735 73.053988069295883 5.7850839495658866 20.758610546588898 434.24043771624565 12.614260494709013 11.66602313518524 17.882058590650558 20.216227859258652 180.55918630957603 42.317907840013504 12.087006002664564 8680.1768005788326 39.763563126325607 5.6371186375617972 32.986015468835831
leaf_count=159657 1099 8893 247 983 2445 1680 846 1570 498 268 61 72 692 263 259 237 20 77 1627 41 38 67 75 586 158 41 28167 129 20 111
internal_value=0 1.67595 2.10041 2.29989 0.72515 2.41599 0.987057 1.62632 0.599641 2.49538 -0.0163987 2.51667 1.86488 0.38424 2.57258 1.06023 -0.591407 2.38953 -0.460572 -0.36024 -0.45302 2.59647 1.0906 2.60359 2.01609 -0.48376 2.61858 1.62748 1.7099 2.04607
internal_weight=0 15068.1 12694.6 11086.5 1608.07 10557.3 555.628 955.47 471.538 10001.7 529.18 9929.71 784.391 266.694 9145.32 142.215 42564 281.49 453.043 318.303 274.139 9003.11 42.4075 8960.7 222.877 305.689 8737.82 57.6456 44.4082 38.7711
internal_count=210927 51119 42226 36532 5694 34597 1944 3249 1679 32653 1935 32385 2635 955 29750 496 159808 923 1688 1181 1021 29254 147 29107 744 1140 28363 196 151 131
shrinkage=0.05


Tree=8
num_leaves=31
num_cat=0
split_feature=76 63 58 7 47 54 62 35 59 48 41 6 4 105 35 50 13 9 37 30 35 61 1 35 50 66 55 35 56 64
split_gain=29865.2 26961.9 5858.91 5668.52 3937.88 2304.46 1028.4 239.017 132.835 127.366 59.7126 59.2425 34.2167 31.0223 27.9891 15.4266 13.5755 8.01025 5.39829 3.2692 2.04435 1.66569 1.98253 0.937437 0.349022 0.134342 0.118643 0.0724994 0.0353379 0.0298194
threshold=7149298491307.7109 2.7599546783204805e-16 20714.290729668417 74.110435234942784 95.268042910424683 95.268042910516343 43.48896392000001 5.2981022168982118e-27 74.000000000000071 2.5044149551169421e-11 1.1166787111678837e-11 809.43334592937856 74.012470542967137 162782.00043669608 -1.6364884476601308e-27 2.2355265290480678e-09 74.36230364939891 5181.9853630281405 203.37867316066715 10.914308307879539 -4.392555261166423e-27 95.268042910516456 74.006934576490409 -4.392555261166423e-27 9.6551182261653539e-10 1505913585.3132544 1.91372437785687e-11 -1.0000000180025095e-35 -1.0708739249827207e-27 2.4976771661967828e-10
decision_type=2 2 2 2 2 2 2 2 2 2 2 2 2 2 2 2 2 2 2 2 2 2 2 2 2 2 2 2 2 2
left_child=25 2 4 -4 15 8 19 11 9 20 -10 12 -7 16 -11 24 -8 23 -9 -3 -6 26 -23 -14 -2 -1 27 -22 -28 -21
right_child=1 6 3 -5 5 7 13 18 10 14 -12 -13 17 -15 -16 -17 -18 -19 -20 29 21 22 -24 -25 -26 -27 28 -29 -30 -31
leaf_value=-0.027090859346453472 -0.027096734680549198 0.18442554575660261 -0.027096082498247048 0.22973319646057019 0.1935757789165452 0.094853464943590926 0.058772954906814646 0.15654793485353286 -0.027139398798206135 -0.027196542330061576 0.21634192803212154 0.1631420787423685 -0.0031004853950376953 0.14421990284209313 0.14962350959700876 0.083376259010211159 -0.027106044284772781 0.055586264862448435 0.22961765520263519 0.2308473906250777 0.23067326072187486 0.2299209630558624 0.18087095271170262 -0.027102463173485327 -0.009625604551056495 -0.025400198571249494 0.23343364899178087 0.23867451265746031 0.22969754039724444 0.22961816900173956
leaf_weight=23644.589319095016 3311.992423504591 4.0038376003503791 343.73334038257599 572.95585955679417 4.0632952451705924 6.1344839036464682 5.2204901427030554 3.5262309163808814 7.9516265094280225 5.748441070318222 3.685099333524704 4.4559497833251944 4.1643307805061331 3.2037542611360541 3.6648757010698301 3.1639604419469824 38.826460912823677 3.0182676166295996 8.9260717332363111 50.407890290021896 5.2181377708911896 4.4578667879104596 3.8299865126609802 175.98005090653896 2.8610555380582801 118.08720353245735 6.5025765895843497 6.1889840662479383 237.244623914361 2323.6847624033689
leaf_count=165991 23196 22 2408 2954 22 39 33 20 55 39 20 26 29 20 21 21 271 20 46 261 27 23 20 1230 20 828 34 33 1223 11975
internal_value=0 1.78879 0.398658 2.66859 -0.14709 2.48471 4.49958 -0.0683001 4.30912 4.4482 0.999317 -0.341238 -0.426077 -0.120025 0.832892 -0.539527 -0.338552 -0.503883 4.17852 4.59136 4.57542 4.58628 4.14508 -0.530952 -0.541633 -0.541649 4.60061 4.70029 4.59594 4.59289
internal_weight=0 7154.81 4729.47 916.689 3812.78 494.761 2425.35 206.205 288.556 276.919 11.6367 193.753 189.297 47.2507 9.41332 3318.02 44.047 183.163 12.4523 2378.1 267.505 263.442 8.28785 180.144 3314.85 23762.7 255.154 11.4071 243.747 2374.09
internal_count=210927 44108 31526 5362 26164 2927 12582 1410 1517 1442 75 1344 1318 324 60 23237 304 1279 66 12258 1382 1360 43 1259 23216 166819 1317 60 1257 12236
shrinkage=0.05


Tree=9
num_leaves=31
num_cat=0
split_feature=14 76 9 33 14 33 76 11 108 45 61 113 57 14 1 9 99 3 83 87 12 3 1 1 13 46 64 3 44 69
split_gain=69804.2 3232.68 1596.44 113.458 95.89 1275.33 37.589 37.4462 38.6486 11.1321 1015.31 6.6078 4.65907 4.09416 2.95544 2.23064 1.31495 0.846592 0.335647 0.273959 0.181524 0.0961223 0.050125 0.0105023 0.000885272 0.340143 0.000598719 0.00059832 0.000135593 9.75854e-05
threshold=1107.2925917956225 2.3762795324898858e+17 522.89093430843843 84.852815225000015 402.34515256472838 76.000000000000014 9302272527907714 200.53634855591278 3.6373496925000004 73.999999999999929 95.266995181346559 1.7518756301876998e-28 0.45780245500000011 242.02611481218631 82.15668431335591 668.37404620740426 1.8800000000000001e-35 118.95288688296198 101.67325285000003 1.000000000013433 2603.7591937928796 18.041775261679025 74.015087926259909 74.025357661973686 74.799072497983474 0.0010395998824101707 -4.6149999999999997e-18 1.8651342790000001 2.9131315558133877 1505913248.9527848
decision_type=2 2 2 2 2 2 2 2 2 2 2 2 2 2 2 2 2 2 2 2 2 2 2 2 2 2 2 2 2 2
left_child=1 4 -2 13 6 20 9 -8 -9 18 15 -10 -7 -3 -5 -11 -12 21 24 -15 23 -17 -23 -6 28 -26 -4 -28 -1 -29
right_child=2 3 26 14 5 12 7 8 11 10 16 -13 -14 19 -16 17 -18 -19 -20 -21 -22 22 -24 -25 25 -27 27 29 -30 -31
leaf_value=-0.027140362793652818 -0.027147838722026946 0.18045512508368544 0.22663447737973944 -0.013780060910235804 0.22871956360652912 -0.027148768075218245 -0.027219864054765331 -0.027267211019821158 0.12571952241432829 0.18899496826667234 -0.027149633079560045 0.22412914074576898 0.031533563620901907 0.23975627181793269 0.052022057146666037 0.23512152117784832 0.0058468267702182532 0.20425886310583663 -0.010307939823553552 0.2260149556750097 0.21553009694865322 0.23215149746476174 0.2260149556750097 0.2260149556750097 -0.010074382504275938 -0.027149776754178408 0.22657962065087534 0.22601513647585644 -0.027148798047466356 0.22613997612020392
leaf_weight=16489.449217379093 63.528581887483597 5.0357835143804541 3.9256610870361319 3.7242728471755973 3.8942684531211844 685.10462346673012 10.145690932869913 3.4939295351505262 3.2639676481485367 4.8377442359924308 3373.6076302081347 3.573112815618515 3.3991795480251303 3.7359818518161765 3.149419903755188 3.9908931404352179 3.0220559835433951 4.3039068281650534 2.9617720097303382 124.54541002213955 4.3099398612976065 3.8436566591262844 24.79102948307991 45.843729123473167 2.9266083240509024 843.59451949596405 4.711792215704917 3120.9129696339369 6699.8134687691927 15.732715427875517
leaf_count=113496 436 26 20 25 20 4700 68 23 20 25 23136 20 22 20 20 21 20 22 20 633 22 20 126 233 20 5785 24 15862 45962 80
internal_value=0 -0.500796 4.4201 4.28931 -0.524592 -0.169997 -0.534175 0.8202 2.16032 -0.535185 -0.481789 3.54298 -0.537181 4.49358 0.327389 4.4184 -0.542402 4.50204 -0.542778 4.5283 4.50747 4.55704 4.53677 4.52453 -0.542819 -0.541815 4.52035 4.52033 -0.542856 4.52032
internal_weight=0 28360.4 3208.81 140.191 28220.2 742.552 27477.6 20.4767 10.331 27457.1 3418.4 6.83708 688.504 133.317 6.87369 41.7672 3376.63 36.9295 24038.7 128.281 54.0479 32.6256 28.6347 49.738 24035.8 846.521 3145.28 3141.36 23189.3 3136.65
internal_count=210927 194505 16422 724 193781 4997 188784 131 63 188653 23370 40 4722 679 45 214 23156 189 165283 653 275 167 146 253 165263 5805 15986 15966 159458 15942
shrinkage=0.05


Tree=10
num_leaves=31
num_cat=0
split_feature=69 66 13 51 11 63 5 79 66 34 103 14 10 66 27 27 9 73 14 53 35 106 49 64 9 10 9 75 27 71
split_gain=93785.2 170.57 18.1687 43.2733 24.8055 12.9761 2.89391 0.323917 0.296943 0.254034 0.169697 4.40584 0.013502 0.00365641 0.00012134 6.12101e-05 4.87953e-05 4.67615e-05 4.07359e-05 1.88764e-05 1.47485e-05 1.4237e-05 1.25128e-05 1.1138e-05 9.32468e-05 7.94914e-06 1.05828e-05 6.88782e-06 5.19965e-06 4.80837e-06
threshold=1505913477.2059817 1505913536.4491172 95.660688105000006 3.5983367076107666 5838.8895684974077 71.912640135000018 7856.7701240429024 4.9679913669619123e+17 1505913585.3132544 1.2358118965494368e-05 2.2342480279364436e-06 176.28975426220589 63.254942695000004 1505913423.341831 29.039503865000004 31075.513508038948 1530.7121068034305 1014208539.8833007 173.0198776135681 3.8714527627317943 8.2862879615947355e-15 -2.4151452225731954e-28 1.0000000180025095e-35 2.3852382182061184e-10 7854.6120501647583 74.557531315831966 1218.1589915871366 1870742.6277935314 20548.675603250624 715.71602649782869
decision_type=2 2 2 2 2 2 2 2 2 2 2 2 2 2 2 2 2 2 2 2 2 2 2 2 2 2 2 2 2 2
left_child=2 -2 10 6 -5 9 7 18 -3 -6 12 -12 13 -1 -13 17 29 21 -4 20 23 -16 -19 27 28 -23 -27 -18 -25 -14
right_child=1 8 3 4 5 -7 -8 -9 -10 -11 11 14 16 -15 15 -17 19 22 -20 -21 -22 25 -24 24 -26 26 -28 -29 -30 -31
leaf_value=-0.032764430313807873 0.052877264230791622 0.090561030699795264 -0.033116344406361929 -0.033263609471314709 0.091928995409122277 0.0067590596431125853 2.0347006849782626e-05 -0.023980723354230796 0.089050547825709508 0.079549606200354436 0.0053444296248621494 -0.033209987474877821 -0.03299970163569213 -0.032950236784545721 -0.033063479899208055 -0.032872012588052085 -0.032995039401772126 -0.033038805504728506 -0.03300403797702918 -0.032931465810973469 -0.033051056594771082 -0.033046395904647315 -0.033124699578298882 -0.032998365232702824 -0.033147405895901948 -0.032998658099647568 -0.032936915636349033 -0.033042240877459245 -0.032995265569918129 -0.032962718347523373
leaf_weight=268.01750347018242 305.05727767944336 20560.117107957602 8.8808574080467206 9.7035516202449781 8.7111374437809044 7.4866942167282096 7.4964965283870688 11.044066727161406 330.60437607765198 7.9045660793781272 7.7895116508007041 7.4422513842582694 17105.622920304537 21868.462730973959 8.8505540490150434 8.3768517374992353 11906.55633059144 7.363421797752383 88.911704897880554 11.335063368082045 12.159832209348677 8.1042178869247419 9.995928227901457 4414.2251569032669 10.378930449485777 135.15701666474342 7.3158440589904776 7.7337938845157614 1950.9196028411388 8.7932555079460126
leaf_count=732 784 51439 24 26 22 20 20 30 828 20 21 20 46571 59729 24 23 32426 20 242 31 33 22 27 12019 28 368 20 21 5313 24
internal_value=0 1.7999 -0.658568 -0.311151 0.684755 1.22827 -0.600558 -0.641951 1.81074 1.7208 -0.659471 -0.630422 -0.659572 -0.65896 -0.660241 -0.660082 -0.659955 -0.660207 -0.660285 -0.659919 -0.65992 -0.660037 -0.661765 -0.659919 -0.659953 -0.659965 -0.65991 -0.659901 -0.659948 -0.659994
internal_weight=0 21195.8 57914.7 150.139 33.8059 24.1024 116.333 108.837 20890.7 16.6157 57764.6 200.396 57564.2 22136.5 192.606 185.164 35427.7 176.787 97.7926 18313.3 18302 159.428 17.3594 18289.8 6375.52 150.577 142.473 11914.3 6365.14 17114.4
internal_count=210927 53051 157876 404 88 62 316 296 52267 42 157472 545 156927 60461 524 504 96466 481 266 49871 49840 434 47 49807 17360 410 388 32447 17332 46595
shrinkage=0.05


Tree=11
num_leaves=31
num_cat=0
split_feature=10 69 66 101 13 50 48 6 22 48 12 14 69 13 43 12 66 108 73 6 9 14 32 9 64 9 36 8 6 1
split_gain=34189.9 60683.5 191.992 7.05595 27.4239 20.1734 15.6763 3.71277 1.92099 2.5016 1.83838 0.324715 0.105574 0.391671 0.0895897 0.392753 0.0666944 0.000180674 0.00013024 0.000134344 8.48392e-05 6.98379e-05 6.08025e-05 2.95959e-05 1.8799e-05 0.000163988 2.6363e-05 1.7579e-05 2.05871e-05 1.20309e-05
threshold=63.254942695000004 1505913477.2059817 1505913536.4491172 2.4748759040000006 91.610970865000013 0.041017822744540432 148.18748070000001 5.0816386370000011 137.87097317951748 2.5044149551169421e-11 31.465542300000003 2351.797196032077 1505913248.9527848 77.121853892396004 -1.2731124772520067e-08 31.318665600000003 1505913423.341831 7.9728133900000016 63803.983413742411 812.48617221648431 1362.7268903308338 227.61482595177134 1.0768478473934844e-05 932.47370489375555 2.3852382182061184e-10 7854.6120501647583 2.6893268349079893e-09 5.0712196327735928 784.17841590269052 74.534226054626359
decision_type=2 2 2 2 2 2 2 2 2 2 2 2 2 2 2 2 2 2 2 2 2 2 2 2 2 2 2 2 2 2
left_child=1 16 -3 8 10 7 -7 17 12 11 -5 -10 14 23 15 -2 -1 -6 21 22 -16 -12 -20 29 26 -26 -22 -23 -29 -14
right_child=3 2 -4 4 5 6 -8 -9 9 -11 18 -13 13 -15 20 -17 -18 -19 19 -21 24 27 -24 -25 25 -27 -28 28 -30 -31
leaf_value=0.079102951959916207 -0.022441080224459377 0.0043067857371426538 -0.034610452302668411 -0.010491557179170507 -0.034962051191099568 0.077794571360868828 -0.010443862524594826 0.0052753777781001298 -0.034669661660540738 0.0013783847339003345 -0.034515105931802251 -0.022383509916771582 -0.034728194282004479 -0.022208675168988858 -0.034652311939734053 -0.034651975588217435 0.079835227952539972 -0.034638867534581529 -0.034883434936780047 -0.034594702378984647 -0.034646460470359165 -0.034717199870584192 -0.034732297386300216 -0.034567312349546207 -0.034649419359746796 -0.034839657178875695 -0.034730782729158818 -0.034648949871738464 -0.034566728357449748 -0.034651187675458044
leaf_weight=314.75135362148285 8.0917128920555097 321.77714422345161 20960.530509382486 8.1612954437732679 9.3670500516891533 13.174652814865114 8.1455764472484571 8.6453616917133314 16.089213848114014 8.213072866201399 10.382279515266417 8.0779407024383563 8.0660377442836815 8.0362411737441999 18597.109223097563 35.368195474147797 25693.647046893835 8.0332188010215742 12.588849276304247 10.820917278528212 13182.14717566967 8.867940425872801 14.116633921861647 8.0056936144828779 6967.5185085535049 11.346568077802656 9.2759118974208814 155.11510697007179 8.0060901045799238 13.664490342140196
leaf_count=732 20 783 52252 20 23 31 20 21 40 20 26 20 20 20 46271 88 59729 20 31 27 32807 22 35 20 17338 28 23 386 20 34
internal_value=0 0.57182 -0.680441 -0.691562 -0.532069 0.160326 0.881646 -0.430126 -0.692692 -0.449224 -0.675873 -0.61126 -0.692895 -0.640053 -0.692947 -0.647569 1.59653 -0.696257 -0.69317 -0.694866 -0.692998 -0.692821 -0.696071 -0.69299 -0.692953 -0.692995 -0.69293 -0.692973 -0.692898 -0.693595
internal_weight=0 47290.7 21282.3 39156.4 275.425 47.3659 21.3202 26.0456 38881 32.3802 228.059 24.1672 38848.6 37.7725 38810.9 43.4599 26008.4 17.4003 219.898 37.5264 38767.4 182.371 26.7055 29.7362 20170.3 6978.87 13191.4 171.989 163.121 21.7305
internal_count=210927 113496 53035 97431 682 115 51 64 96749 80 567 60 96669 94 96575 108 60461 43 547 93 96467 454 66 74 50196 17366 32830 428 406 54
shrinkage=0.05


Tree=12
num_leaves=31
num_cat=0
split_feature=13 101 78 8 73 41 63 69 83 11 29 33 11 66 69 62 59 44 69 76 10 94 43 12 29 57 98 100 9 110
split_gain=74170.8 159.357 66.1724 64.4972 7.85787 11.5937 2.64903 0.838882 1.39752 0.0594548 0.030019 0.00738129 0.00637438 0.0976534 0.00335563 0.0024439 0.0025772 0.00220193 0.000417198 0.000193674 0.000646449 0.00017287 0.000181269 0.00050373 0.000142554 0.0017198 6.78013e-05 5.8504e-05 3.22484e-05 3.1288e-05
threshold=88.097506235000012 6.9351514635596336 112.20286030000001 19177.034972701626 6018904693.8751364 357.15702260000006 -6.2587972738069571e-15 2931177.2022233275 95.361213748412013 3329.7619048064112 198.41389468999026 60.000353742322467 1.0000000180025095e-35 1505913423.341831 1.2930425980613001 11363.400455000001 75.929569360000016 2.9131315558133877 1505913477.2059817 586115809205.19397 89.555116485000028 1.9992265035000003 -1.2731124772520067e-08 32.058220100000007 410.31030484317313 0.34335496550000005 15.993745930000001 -3.1249999999999997e-28 1362.7268903308338 7.0346088610000015
decision_type=2 2 2 2 2 2 2 2 2 2 2 2 2 2 2 2 2 2 2 2 2 2 2 2 2 2 2 2 2 2
left_child=2 3 -1 4 7 -6 -4 9 11 10 -2 -9 13 -8 -12 17 -17 19 -15 21 -21 22 23 -16 26 27 -24 -26 -14 -29
right_child=1 -3 6 -5 5 -7 12 8 -10 -11 14 -13 28 18 15 16 -18 -19 -20 20 -22 -23 24 -25 25 -27 -28 29 -30 -31
leaf_value=0.13112021388138009 0.13415492059418541 -0.028684239200210238 0.0047728539093557154 -0.028728195051899899 0.058040962651057675 0.13632869384699947 -0.027426370983402198 0.13112920605520001 0.10805543385897494 0.12617253903719608 0.13197327489096208 0.13347769502700177 -0.028692680701657099 -0.028649831652539638 0.13164925851252374 0.13248394207372252 0.13122319295895227 0.13204745553678673 -0.028662745349572361 0.131624724515327 0.13113633302489058 0.13133855738387593 0.13112092967530184 0.13110938323475743 0.13128537316034822 0.13196882257706252 0.13128678393643076 0.13112074242149183 -0.028687485679768601 0.13120409167282115
leaf_weight=6.4810910224914542 8.1875303089618665 15.667438641190527 5.9245363324880591 6.3220137804746619 9.0678028762340546 9.8834950029850006 162.53361104428768 6.1721439957618731 10.474369883537291 6.055098444223403 11.669607341289518 7.3063484728336334 4063.2756083458662 13279.56482809782 6.1534796655178097 6.7361157834529903 10.178453892469404 6.446196734905242 11822.34833624959 8.308373421430586 36.722728937864304 9.2469139695167524 8564.8802694678307 14.50621461868286 6.166526496410369 6.4491629898548117 6.1664780974388114 128.69555148482323 11280.550068199635 12.338897496461867
leaf_count=21 27 70 25 28 32 33 730 20 36 20 38 24 18118 59729 20 22 33 21 53035 27 119 30 27752 47 20 21 20 417 50352 40
internal_value=0 2.61275 -0.572661 2.61836 2.62063 1.97739 -0.573171 2.622 2.43511 2.62251 2.62258 2.64805 -0.573269 -0.57296 2.62252 2.6225 2.63451 2.62247 -0.573118 2.62246 2.62453 2.62245 2.62245 2.6254 2.62244 2.62339 2.62242 2.62269 -0.573777 2.62256
internal_weight=0 8913.8 40620.7 8898.13 8891.81 18.9513 40614.2 8872.86 23.9529 8848.91 8842.85 13.4785 40608.3 25264.4 8834.66 8823 16.9146 8806.08 25101.9 8799.63 45.0311 8754.6 8745.36 20.6597 8724.7 153.65 8571.05 147.201 15343.8 141.034
internal_count=210927 28917 182010 28847 28819 65 181989 28754 80 28674 28654 44 181964 113494 28627 28589 55 28534 112764 28513 146 28367 28337 67 28270 498 27772 477 68470 457
shrinkage=0.05


Tree=13
num_leaves=31
num_cat=0
split_feature=51 63 13 70 9 56 9 60 61 63 64 49 12 9 43 9 10 10 35 9 49 7 59 10 9 3 31 113 38 42
split_gain=51490.9 12092.9 2693.48 2345.98 1678.7 900.646 943.686 767.114 766.916 538.474 495.616 261.724 692.004 502.735 265.696 217.58 165.803 159.091 136.322 247.853 116.981 101.345 98.0283 55.9599 287.432 41.1272 93.8646 26.3572 18.9119 15.9239
threshold=454.40302857060743 3.5845711547077245e-16 74.090447360403729 1.2567334537705214e-05 7086.6997892063036 5.8946014003301281e-18 7337.7938798964487 6.3279798797182092e-06 95.268042910516343 -8.0939362256455778e-16 7.226458690945289e-10 -4.5105559620839207e-17 21026.577060256266 7464.3950866909727 -4.5968094150170308e-09 2527.7306856085766 74.546464455717185 74.949091692484771 2.0919258216970168e-16 7464.3950866909727 1.0000000180025095e-35 74.06678986564286 74.000000000000071 75.031514851223037 7200.897712540127 52.826346058410493 73.999999999999829 -1.0000000180025095e-35 73.999999998261032 -1.6963222508210994e-15
decision_type=2 2 2 2 2 2 2 2 2 2 2 2 2 2 2 2 2 2 2 2 2 2 2 2 2 2 2 2 2 2
left_child=15 2 4 9 7 6 22 8 21 -4 11 12 -7 -14 -13 -1 -11 -8 23 -20 -10 -2 -5 25 -25 26 -16 -17 -12 -27
right_child=1 -3 3 5 -6 10 17 -9 20 16 28 14 13 -15 18 27 -18 -19 19 -21 -22 -23 -24 24 -26 29 -28 -29 -30 -31
leaf_value=-0.029508373053378108 -0.029577781734091868 -0.029548229935489796 0.11533140311564327 -0.029164810720187208 -0.029548616397724166 0.11537011939102196 0.11535340534166194 0.11534052750669331 -0.029829777631924698 0.11533141987719352 0.064828409164937081 -0.028125453336990153 -0.029589334252733648 0.1153735851202165 -0.029548129925483075 -0.015060739771651009 -0.029548130002012691 -0.029615444733967211 -0.02954811935000767 0.11533144238743231 0.11657533577375484 0.11584719893787049 0.11255755711544875 0.11538351853489189 -0.029571721060121955 0.079877992228111136 0.11533142022401255 0.092809226374129958 -0.029582857559768774 0.11525219370330426
leaf_weight=41377.498562097549 276.36940225958824 2316.3161295354366 83.870756536722183 256.27571639418602 636.87274774909019 570.31847482919693 287.22619485855103 533.07509517669678 14.772867143154143 20.713018745183945 5.7761349081993094 33.160636931657791 181.18474653363228 89.280060082674026 16.148589551448822 6.577886462211608 423.77024999260902 20.259925276041031 46.6224505007267 80.475160449743271 178.5567712187767 12.523058682680128 12.811511516571043 198.91579884290695 41.298867404460907 31.919940054416656 36.332672148942947 40.710326850414276 64.93483829498291 9570.3742114007473
leaf_count=159657 1057 8893 247 983 2445 1680 846 1570 55 61 20 126 692 263 62 23 1627 77 179 237 530 37 38 586 158 101 107 128 248 28194
internal_value=0 1.52252 1.87924 2.04313 0.681739 2.13745 0.919235 1.48008 0.566171 -0.0174059 2.2015 2.21862 1.68265 0.365255 2.26344 -0.587717 -0.455934 2.11603 2.27279 1.24372 2.10776 -0.465477 -0.448345 2.286 1.80924 2.29787 1.41503 1.55609 -0.437415 2.30269
internal_weight=0 16040.2 13723.8 12071.7 1652.17 11543.3 576.573 1015.3 482.222 528.354 10966.7 10896 840.783 270.465 10055.2 41424.8 444.483 307.486 10022.1 127.098 193.33 288.892 269.087 9894.99 240.215 9654.78 52.4813 47.2882 70.711 9602.29
internal_count=210927 51119 42226 36532 5694 34597 1944 3249 1679 1935 32653 32385 2635 955 29750 159808 1688 923 29624 416 585 1094 1021 29208 744 28464 169 151 268 28295
shrinkage=0.05


Tree=14
num_leaves=31
num_cat=0
split_feature=76 63 58 7 47 54 62 35 59 48 6 41 4 105 35 50 13 9 51 57 42 35 61 35 50 66 30 55 35 0
split_gain=26506.3 18869.9 4825.82 3979.16 3418.48 1610.76 657.133 190.965 81.9549 77.7712 50.5804 45.5712 30.9933 26.4547 23.1415 14.2061 12.6562 7.59056 4.12101 2.0609 1.56031 0.937443 0.927791 1.93562 0.350894 0.137619 0.0568524 0.051385 0.0326137 0.0252126
threshold=7149298491307.7109 2.7599546783204805e-16 20714.290729668417 74.110435234942784 95.268042910424683 95.268042910516343 43.48896392000001 5.2981022168982118e-27 74.000000000000071 2.5044149551169421e-11 809.43334592937856 1.1166787111678837e-11 74.012470542967137 162782.00043669608 -1.6364884476601308e-27 2.2355265290480678e-09 74.36230364939891 5181.9853630281405 454.40302857060743 1.432950134698283e-09 3.5228263637809122e-27 -4.392555261166423e-27 95.268042910516456 8.5411803944869364e-28 9.6551182261653539e-10 1505913585.3132544 128.68650450241094 1.91372437785687e-11 1.5606055713563404e-30 20.172011893718871
decision_type=2 2 2 2 2 2 2 2 2 2 2 2 2 2 2 2 2 2 2 2 2 2 2 2 2 2 2 2 2 2
left_child=25 2 4 -4 15 8 19 10 9 20 12 -10 -7 16 -11 24 -8 21 -9 29 22 -14 27 -24 -2 -1 -20 28 -6 -3
right_child=1 6 3 -5 5 7 13 18 11 14 -12 -13 17 -15 -16 -17 -18 -19 26 -21 -22 -23 23 -25 -26 -27 -28 -29 -30 -31
leaf_value=-0.027022439426989616 -0.027034259658249772 0.18626204718319481 -0.027032408553857436 0.18263118467869222 0.18322714675731411 0.084605193501899573 0.05404876962571864 0.12856950301781089 -0.027084290502793731 -0.027142025977640146 0.13839369878877697 0.17359152052135024 -0.0029731597915188626 0.12385166959520849 0.12849479996376759 0.075007117617063912 -0.02704608179737927 0.05169027935233618 0.1901765581262225 0.15052704070203857 0.15405909285306496 -0.027039502818003935 0.14377684259073364 0.18801237533138057 -0.0094304804165512551 -0.025287955158320871 0.18274728163752299 0.18276568978584354 0.18807827330485996 0.18257661432454292
leaf_weight=22986.567735075951 3228.1730228066444 4.6481419652700415 334.86338269710541 698.02759696543217 6.3625711202621442 6.6798373609781256 5.5111929178237906 4.454304397106168 7.7689557522535306 5.6299544274806976 5.1052225679159156 4.4492309987545013 4.1441384106874457 3.6251766085624686 4.1481907367706281 3.4154867678880683 37.88230262696743 3.1620746403932563 4.566938728094101 5.0227892696857444 4.9225915372371665 171.49979975819588 4.6337361335754377 5.3032456785440445 2.8332490026950827 114.93267253041267 5.9043185412883759 296.8438740670681 7.6066669672727585 2887.1189835071564
leaf_count=165991 23196 20 2408 2954 27 39 33 21 55 39 26 20 29 20 21 21 271 20 20 23 22 1230 20 23 20 828 25 1257 33 12215
internal_value=0 1.59543 0.377166 2.29316 -0.145331 2.15186 3.59035 -0.0675616 3.46382 3.55648 -0.337315 0.919829 -0.422781 -0.118128 0.777678 -0.538222 -0.334933 -0.501789 3.37704 3.65054 3.63991 -0.529434 3.64849 3.3477 -0.540376 -0.540276 3.71975 3.6581 3.71737 3.65165
internal_weight=0 7764.31 4820.5 1032.89 3787.61 553.186 2943.81 205.517 347.669 335.451 190.591 12.2182 185.486 47.0187 9.77815 3234.42 43.3935 178.806 14.9256 2896.79 325.673 175.644 320.75 9.93698 3231.01 23101.5 10.4713 310.813 13.9692 2891.77
internal_count=210927 44108 31526 5362 26164 2927 12582 1410 1517 1442 1344 75 1318 324 60 23237 304 1279 66 12258 1382 1259 1360 43 23216 166819 45 1317 60 12235
shrinkage=0.05


Tree=15
num_leaves=31
num_cat=0
split_feature=14 76 9 14 33 14 76 11 108 45 69 60 32 57 11 57 83 12 0 14 76 2 0 4 3 10 64 1 48 72
split_gain=55504.4 2649.35 1047.27 95.4392 1020.94 75.4183 35.7711 31.5901 28.9005 11.2124 827.499 7.23351 4.53457 4.50843 3.30242 1.31032 0.336747 0.143919 0.110433 0.0975845 0.0755798 0.076734 0.0315524 0.0167715 0.0182912 0.0083292 0.00145029 0.00109031 0.000830673 0.00972835
threshold=1107.2925917956225 2.3762795324898858e+17 522.89093430843843 402.34515256472838 76.000000000000014 236.77202816188958 9302272527907714 200.53634855591278 3.6373496925000004 73.999999999999929 1505912794.4137814 1.5009061849445714e-06 1.7996945507103545e-05 0.45780245500000011 213.82819316751036 0.59107680450000011 101.67325285000003 2603.7591937928796 100.51459070700695 242.02611481218631 2.3780366329615741e+17 236.45776429926855 20.172011893718871 74.059654446812857 118.95288688296198 75.701969367684868 -4.6149999999999997e-18 75.399191755874782 1.0000000180025095e-35 1505913423.341831
decision_type=2 2 2 2 2 2 2 2 2 2 2 2 2 2 2 2 2 2 2 2 2 2 2 2 2 2 2 2 2 2
left_child=1 3 -2 6 18 -3 9 -8 -9 16 15 19 -10 -6 -12 -11 28 22 25 -7 -21 -22 -16 -24 -25 -5 -4 -27 29 -1
right_child=2 5 26 4 13 11 7 8 12 10 14 -13 -14 -15 17 -17 -18 -19 -20 20 21 -23 23 24 -26 27 -28 -29 -30 -31
leaf_value=-0.026579491273002978 -0.027080672089634508 -0.0093466086300039337 0.18120973229698928 0.18261474805179809 -0.027083376190759196 0.18757463535147678 -0.027159320851622717 -0.027195465905743121 0.18446393798472061 -0.027085802856819031 0.1361730479307301 0.11817622808729121 0.10917444771156957 0.029864953647114015 0.18519609035362472 0.0057527894663922923 -0.0101348392818566 0.17440769821184421 0.17369393223325186 0.18536121566604924 0.18033395824495568 0.17382970764651506 0.18414707988145423 0.18032399124989903 0.18375052507229311 0.18035726306588562 0.18033616583629658 0.18114954245630752 -0.027084369999061254 -0.027067205095456789
leaf_weight=102.90807411074638 61.842193439602852 5.5081939399242392 4.7571280151605597 4.7263393253087989 667.46620321273804 4.8516992032527915 9.9138475209474581 3.4018584638833982 3.9966063052415848 3288.3135113865137 4.5542378425598136 4.7819402217864981 4.0029747188091278 3.4935775250196448 6.5389800667762747 3.0405385792255393 2.9355974346399298 7.3741688132286063 6.4137134402990332 7.2341407984495154 141.62374241650105 4.684530794620513 4.6931919753551474 22.689509883522991 4.7017332911491385 49.670392736792564 3813.0547801405191 4.7584553062915793 7354.4508101344109 15909.177869290113
leaf_count=730 436 34 20 20 4700 21 68 23 20 23133 22 25 20 22 28 21 20 31 27 31 593 20 20 95 20 208 15966 20 51766 112767
internal_value=0 -0.498539 3.54062 -0.522802 -0.167689 3.45243 -0.532586 0.762348 1.89754 -0.533619 -0.47944 3.57528 2.93578 -0.535737 3.53574 -0.541109 -0.541367 3.61617 3.59851 3.61186 3.60745 3.60251 3.64061 3.62771 3.61824 3.61203 3.60675 3.60853 -0.541409 -0.541281
internal_weight=0 27637.9 3879.65 27469.2 736.529 168.684 26732.7 21.3153 11.4014 26711.4 3341.91 163.176 7.99958 670.96 50.5518 3291.35 23369.5 45.9976 65.5689 158.394 153.542 146.308 38.6234 32.0844 27.3912 59.1552 3817.81 54.4288 23366.5 16012.1
internal_count=210927 194505 16422 193781 4997 724 188784 131 63 188653 23370 690 40 4722 216 23154 165283 194 275 665 644 613 163 135 115 248 15986 228 165263 113497
shrinkage=0.05


Tree=16
num_leaves=31
num_cat=0
split_feature=69 66 13 51 11 63 5 79 66 80 103 12 10 66 64 12 73 12 14 44 64 75 108 12 10 34 81 35 17 67
split_gain=84806 139.108 17.9129 40.9773 22.3609 11.1332 2.83639 0.319234 0.238141 0.223909 0.165998 4.29169 0.0476641 0.00369691 0.000247485 0.000194824 0.000132116 0.00010483 9.24693e-05 8.98165e-05 6.05174e-05 5.19355e-05 0.000129492 0.000149467 4.30785e-05 3.68142e-05 3.51433e-05 2.96591e-05 6.28811e-05 2.73672e-05
threshold=1505913477.2059817 1505913536.4491172 95.660688105000006 3.5983367076107666 5838.8895684974077 71.912640135000018 7856.7701240429024 4.9679913669619123e+17 1505913585.3132544 1.0295634239602562 2.2342480279364436e-06 28.506108765000004 63.254942695000004 1505913423.341831 -9.3066394112859166e-12 21762.017705509952 1014208539.8833007 31075.513508038948 35.346979766138709 1.9911592921829004 7.7057150412273075e-10 16416.154315182754 4.2355646745000008 3020.8777734656151 74.854398932968863 1.5529622365688028e-08 66.920229405000015 8.2862879615947355e-15 236.45776429926855 1.1900008564028491e-05
decision_type=2 2 2 2 2 2 2 2 2 2 2 2 2 2 2 2 2 2 2 2 2 2 2 2 2 2 2 2 2 2
left_child=2 -2 10 6 -5 9 7 18 -3 -6 12 -12 13 -1 27 21 17 24 -4 -18 -17 -16 26 -24 25 -13 -23 29 -29 -14
right_child=1 8 3 4 5 -7 -8 -9 -10 -11 11 16 14 -15 15 20 19 -19 -20 -21 -22 22 23 -25 -26 -27 -28 28 -30 -31
leaf_value=-0.032368788117385548 0.049566992318200109 0.083065165373405581 -0.032828193933617154 -0.032852729773645381 0.084787191406350715 0.0065708042651971919 0.00010859894788784884 -0.023628219165649514 0.081746297185053801 0.073435910728449891 0.0051433124538056403 -0.032673964630943957 -0.032651225395784821 -0.03255811630299376 -0.032652498215080164 -0.032642575146476317 -0.032918184608779245 -0.032474574414466204 -0.032650507593390214 -0.032705427528522936 -0.03275894550275988 -0.032759944366830496 -0.032955927785044414 -0.032685117134054469 -0.032648897742639252 -0.032817796009278193 -0.032657085234407898 -0.032618061145331841 -0.032819940807342546 -0.032642436394094899
leaf_weight=260.99940598011017 314.74665746092796 21644.139555871487 7.9902284145355216 9.4528812468051893 9.1474128365516716 7.5104976296424857 7.4817383289337149 10.885440558195112 347.77087277173996 8.2736714184284192 7.8177342116832724 11.500405520200731 993.27043455839157 21293.657275259495 10711.626485317945 3958.1405947208405 7.6705376207828531 8.1495841145515424 87.551568150520325 14.040535807609558 11.203736633062361 8.3106190264224988 7.6886729300022152 15.104717969894407 139.56226494908333 7.2556425631046286 10714.287794619799 8.2339911758899671 7.2565875351428977 8179.0687461495399
leaf_count=732 784 51439 22 26 22 20 20 30 828 20 21 32 2768 59729 29848 11037 21 23 244 39 31 23 21 42 389 20 29846 23 20 22807
internal_value=0 1.65144 -0.651269 -0.304172 0.6526 1.14916 -0.592982 -0.634821 1.66089 1.58792 -0.652182 -0.623131 -0.652284 -0.651116 -0.653011 -0.653062 -0.653292 -0.652989 -0.653307 -0.655612 -0.652858 -0.653099 -0.653148 -0.655529 -0.653169 -0.654592 -0.653143 -0.65287 -0.654253 -0.652868
internal_weight=0 22306.7 56513.1 148.293 34.3845 24.9316 113.909 106.427 21991.9 17.4211 56364.8 195.997 56168.8 21554.7 34614.2 25426.4 188.179 166.468 95.5418 21.7111 3969.34 21457 10745.4 22.7934 158.318 18.756 10722.6 9187.83 15.4906 9172.34
internal_count=210927 53051 157876 404 88 62 316 296 52267 42 157472 545 156927 60461 96466 70848 524 464 266 60 11068 59780 29932 63 441 52 29869 25618 43 25575
shrinkage=0.05


Tree=17
num_leaves=31
num_cat=0
split_feature=10 69 72 101 13 61 54 6 7 48 12 29 69 1 43 59 72 64 12 73 12 64 34 29 32 61 69 61 35 8
split_gain=32121.5 54443 186.71 6.95646 26.469 28.4938 4.16333 2.74964 1.90748 2.43007 1.80173 0.32457 0.107687 0.396656 0.0891023 0.405687 0.0545142 0.000430897 0.000337835 0.000223671 0.000349786 0.000148116 0.00011776 0.000105807 9.14525e-05 8.84556e-05 0.000141651 7.29518e-05 7.4802e-05 6.63469e-05
threshold=63.254942695000004 1505913477.2059817 1505913536.4491172 2.4748759040000006 91.610970865000013 135.86103839586022 129.77977690577552 5.0816386370000011 137.87097317951748 2.5044149551169421e-11 31.465542300000003 2351.797196032077 1505913248.9527848 74.019331988860529 -1.2731124772520067e-08 77.709214455000009 1505913423.341831 -9.3066394112859166e-12 21762.017705509952 47453.845023525129 3397.9724469183225 6.7887277594642708e-10 1.0977236438767182e-10 214.45981473645267 0.0020767586852978681 95.268042910516456 2931177.2022233275 138.61575590628169 8.2862879615947355e-15 556.23844306163267
decision_type=2 2 2 2 2 2 2 2 2 2 2 2 2 2 2 2 2 2 2 2 2 2 2 2 2 2 2 2 2 2
left_child=1 16 -3 8 10 6 -6 24 12 11 -5 -10 14 -14 15 -2 -1 27 25 23 -21 -20 -22 -12 -7 -19 -27 28 -16 -15
right_child=3 2 -4 4 5 7 -8 -9 9 -11 19 -13 13 29 17 -17 -18 18 21 20 22 -23 -24 -25 -26 26 -28 -29 -30 -31
leaf_value=0.073478012950425983 -0.034233171894069603 0.0042593886703412159 -0.034111835338725915 -0.010202783203263148 0.028922659081806218 -0.034141710994975469 0.075951971450335165 -0.00044299671397652967 -0.034222900911400921 0.0015256284525472842 -0.034004938679107533 -0.021827263880063626 -0.021526782332792108 -0.034061320216958145 -0.034181214458507185 -0.021685455494825919 0.074127560441277676 -0.034198616775856026 -0.034180035388331365 -0.034504811443747403 -0.034330435576425976 -0.034391014410894372 -0.034095588145697554 -0.034193420096330994 -0.034361668240666297 -0.034192266407013852 -0.034338303635728491 -0.034068937127645318 -0.034318824638701041 -0.034229184198866711
leaf_weight=326.97471022605896 34.6644027531147 322.01714694499969 20458.257033765316 8.1109079718589765 8.4648692309856415 7.842344790697104 10.597333371639252 8.6336421072483045 15.748872995376592 8.1913884580135328 7.7865210175514212 7.9450770020484915 7.8675768077373496 8.1981641352176684 10065.200709104538 7.912005513906478 26700.600156277418 12016.692578107119 4335.517250418663 15.162987560033796 9.1023941636085528 8.3348324000835401 12.906453639268873 170.22874867916107 11.89070028066635 11453.057786524296 16.628836035728455 14.453414380550383 9.885033190250395 20.874164938926697
leaf_count=732 88 783 52252 20 20 20 24 21 40 20 20 20 20 21 25617 20 59729 30557 11035 38 23 21 33 433 30 29133 42 37 25 53
internal_value=0 0.54668 -0.670344 -0.682355 -0.522624 0.155835 1.10136 -0.479548 -0.683492 -0.439007 -0.66673 -0.601328 -0.683697 -0.629731 -0.683749 -0.638028 1.48239 -0.683801 -0.683865 -0.684169 -0.6864 -0.683609 -0.683854 -0.683704 -0.685485 -0.683912 -0.68385 -0.683624 -0.683627 -0.683637
internal_weight=0 47807.8 20780.3 38301.9 270.727 47.4289 19.0622 28.3667 38031.2 31.8853 223.298 23.6939 37999.3 36.9399 37962.3 42.5764 27027.6 37919.8 27830.2 215.187 37.1718 4343.85 22.0088 178.015 19.733 23486.4 11469.7 10089.5 10075.1 29.0723
internal_count=210927 113496 53035 97431 682 115 44 71 96749 80 567 60 96669 94 96575 108 60461 96467 70788 547 94 11056 56 453 50 59732 29175 25679 25642 74
shrinkage=0.05


Tree=18
num_leaves=31
num_cat=0
split_feature=13 101 78 83 73 55 64 8 52 14 1 69 61 11 66 105 72 31 62 11 94 69 14 43 76 64 12 9 105 62
split_gain=64566 125.595 58.9523 51.2386 5.08859 13.341 1.80976 0.883559 0.447238 0.238158 1.02554 0.0365046 0.0167942 0.0120986 0.100162 0.00554624 0.0048878 0.0044829 0.0024073 0.00161018 0.00101882 0.000803259 0.000509981 0.000352563 0.000344958 0.000553047 0.000293148 0.000244912 0.00041814 0.000144434
threshold=88.097506235000012 6.9351514635596336 112.20286030000001 404.11631552530122 655738693.88342667 314.45774720000009 -6.7275847554056029e-09 9872.8667332924761 85.00430264000002 193.23172030894514 101.99999995000002 1.2930425980613001 144.71051495000003 1.0000000180025095e-35 1505913423.341831 1.5398074455012807e-12 8586.8863026883409 73.999999999999929 11363.400455000001 1555.320794934589 1.9992265035000003 1505913477.2059817 203.00767885208512 -1.2731124772520067e-08 445541.42677081464 -0.013567935999999997 32.058220100000007 2.6134285670000001 3.6389894035458572e-12 815.37762440000017
decision_type=2 2 2 2 2 2 2 2 2 2 2 2 2 2 2 2 2 2 2 2 2 2 2 2 2 2 2 2 2 2
left_child=2 3 -1 4 7 -6 -4 9 -7 10 -2 -11 16 14 -8 -14 18 -18 19 20 22 -16 -13 26 29 -26 -24 28 -27 -25
right_child=1 -3 6 -5 5 8 13 -9 -10 11 -12 12 15 -15 21 -17 17 -19 -20 -21 -22 -23 23 24 25 27 -28 -29 -30 -31
leaf_value=0.11519218181172226 0.094067967324943685 -0.028555584736626602 -0.005739077662520793 -0.029131345721322473 0.024004368650629989 0.12147782942462007 -0.027251500389945518 0.096411018285007755 0.10415024502711984 0.11256579351456975 0.12192821929970384 0.11561834016782109 0.11768252690230314 -0.028563832074471152 -0.0285063317831145 0.11577432823428675 0.11519903935503047 0.11697799531000615 0.11589976906450941 0.11594895069600633 0.11564029112603987 -0.028524515855259752 0.11566772790230889 0.11519289353882277 0.115672408891191 0.11517908442982927 0.11527396881789634 0.11522441679328005 0.11572750905309925 0.11527702545100203
leaf_weight=7.1369422674179068 6.3834083974361402 15.252788946032522 8.7135602980852109 6.1595337390899649 5.5450771600008038 9.1517733931541425 157.89330871403217 6.2686514109373084 6.2788580507040015 13.156961321830748 6.8451762497425079 7.1178890466690055 8.6996415555477125 14950.644877016544 12886.218985825777 6.7722601890563956 6.7967954576015455 7.3936926424503326 12.180553078651426 7.1029786169528952 12.878152489662169 11486.701400414109 6.7768519520759609 9453.6876620054245 8.1319583058357221 7.1375287473201734 15.625280261039732 118.9249479174614 6.7742918431758881 51.29066863656044
leaf_count=21 20 70 39 26 20 28 730 20 20 39 21 21 26 68456 59729 20 20 22 36 21 38 53035 20 27817 24 21 46 350 20 151
internal_value=0 2.2962 -0.569948 2.30066 2.30248 1.81046 -0.570467 2.30353 2.28854 2.30377 2.16969 2.30395 2.30403 -0.570568 -0.570135 2.33695 2.30397 2.32252 2.30395 2.30393 2.30392 -0.570298 2.30391 2.3039 2.30389 2.30544 2.30786 2.30495 2.30892 2.30387
internal_weight=0 9812.33 39497.3 9797.08 9790.92 20.9757 39490.2 9769.95 15.4306 9763.68 13.2286 9750.45 9737.29 39481.5 24530.8 15.4719 9721.82 14.1905 9707.63 9695.45 9688.35 24372.9 9675.47 9668.35 9645.95 140.969 22.4021 132.837 13.9118 9504.98
internal_count=210927 28917 182010 28847 28821 68 181989 28753 48 28733 41 28692 28653 181950 113494 46 28607 42 28565 28529 28508 112764 28470 28449 28383 415 66 391 41 27968
shrinkage=0.05


Tree=19
num_leaves=31
num_cat=0
split_feature=51 63 28 70 9 56 9 60 54 63 64 9 49 12 9 35 9 10 10 6 35 59 42 1 10 9 3 31 57 38
split_gain=46711.6 10270.7 2143.36 1898.03 1489.65 700.389 807.789 616.244 653.307 473.996 404.109 202.392 197.135 555.793 438.57 189.675 247.196 149.123 130.447 93.8117 92.097 88.3459 55.2868 82.7808 42.0941 238.163 31.6353 88.3951 26.1016 17.5935
threshold=454.40302857060743 3.5845711547077245e-16 74.090447360403729 1.2567334537705214e-05 7086.6997892063036 5.8946014003301281e-18 7337.7938798964487 6.3279798797182092e-06 95.268042910516343 -8.0939362256455778e-16 7.226458690945289e-10 2527.7306856085766 -4.5105559620839207e-17 21026.577060256266 7464.3950866909727 2.6775230012992326e-16 7464.3950866909727 74.546464455717185 74.949091692484771 593.72319668181274 -6.7847065338064286e-28 74.000000000000071 -1.6963222508210994e-15 74.178409789057227 75.031514851223037 7200.897712540127 60.038329161057185 73.999999999999829 0.85058729611429429 73.999999998261032
decision_type=2 2 2 2 2 2 2 2 2 2 2 2 2 2 2 2 2 2 2 2 2 2 2 2 2 2 2 2 2 2
left_child=11 2 4 9 7 6 21 8 19 -4 12 -1 13 -7 -15 22 -17 -11 -8 20 -2 -5 23 -14 26 -26 27 -24 -13 -12
right_child=1 -3 3 5 -6 10 18 -9 -10 17 29 28 15 14 -16 16 -18 -19 -20 -21 -22 -23 24 -25 25 -27 -28 -29 -30 -31
leaf_value=-0.029331388940175448 0.10916088769021359 -0.02938907453437016 0.10300073176955152 -0.028997994197293278 -0.029389495440079308 0.10303132761013285 0.10301824182850224 0.1030128846533036 0.10179739802032002 0.1030007635858477 0.059641843727909941 0.084268034317156099 0.1059489333278601 -0.029428488971013595 0.10303416094729177 -0.029401325637362204 0.10300101829945328 -0.029388854171927787 -0.029453503049971987 -0.029419870609871824 -0.029408861412869455 0.10077345941818383 -0.029444742468439911 -0.029676373207194712 0.10304185039033745 -0.029411504957148268 0.10292248176827588 0.10300203108672756 -0.030098361451165491 -0.029422261997680135
leaf_weight=40237.264843717217 26.471874177455902 2259.5368466079235 90.799823313951492 250.0827499628067 621.26560243964195 617.46119007468224 310.96266368031502 577.10234200954437 182.53423836827278 22.424243420362473 6.0767264962196341 44.3134905397892 25.960724771022797 176.74882608652115 96.660280615091324 63.636205226182938 79.036135047674179 413.37421143054962 19.764622509479523 260.24008893966675 21.919623702764511 13.840846657752989 17.15467780828476 19.856310158967972 215.36138272285461 40.286902517080307 10361.583107978106 47.421364396810532 5.6218982338905326 63.345234006643295
leaf_count=159657 75 8893 247 983 2445 1680 846 1570 498 61 20 131 72 692 263 250 215 1627 77 1020 86 38 67 75 586 158 28198 129 20 248
internal_value=0 1.39661 1.70285 1.84104 0.643499 1.91984 0.860861 1.35957 0.536289 -0.0184745 1.97307 -0.584131 1.98727 1.53503 0.34804 2.02434 0.878911 -0.451534 1.90203 -0.350655 0.927875 -0.443849 2.03957 0.943425 2.04427 1.64338 2.0541 1.35635 1.42785 -0.432524
internal_weight=0 16900.9 14641.4 12951.8 1689.53 12425.2 594.651 1068.27 491.166 526.598 11830.6 40287.2 11761.2 890.87 273.409 10870.3 142.672 435.798 330.727 308.632 48.3915 263.924 10727.6 45.817 10681.8 255.648 10426.2 64.576 49.9354 69.422
internal_count=210927 51119 42226 36532 5694 34597 1944 3249 1679 1935 32653 159808 32385 2635 955 29750 465 1688 923 1181 161 1021 29285 147 29138 744 28394 196 151 268
shrinkage=0.05


Tree=20
num_leaves=31
num_cat=0
split_feature=76 63 58 47 7 52 62 48 73 56 59 7 6 9 35 13 12 35 55 35 12 53 58 61 57 1 66 8 0 30
split_gain=23825.3 14028.5 4075.66 3024.62 2988.27 1116.19 460.49 159.597 87.328 77.5288 38.6619 37.808 36.2521 35.3069 33.3043 24.196 46.4824 10.5179 5.52531 42.4024 2.69541 1.6335 1.44028 0.332858 0.236567 0.174822 0.141137 0.0318863 0.0266465 0.0219533
threshold=7149298491307.7109 2.7599546783204805e-16 20714.290729668417 95.268042910424683 74.110435234942784 73.999999999999901 43.48896392000001 2.5044149551169421e-11 2243041825308047.8 -1.9226292480271583e-27 74.000000000000071 81.946825699646212 809.43334592937856 1040.104079391873 -1.4304488059786286e-27 74.527711937198234 24328.809215595375 1.6323637528368743e-15 1.91372437785687e-11 -3.7612683782699885e-28 7347.9424031483259 2.0212402999400096e-06 2933.1609872783788 95.268042910516456 -4.4163547283721682e-11 74.005727938956753 1505913585.3132544 1.3950988707756553 20.172011893718871 151.33997720418253
decision_type=2 2 2 2 2 2 2 2 2 2 2 2 2 2 2 2 2 2 2 2 2 2 2 2 2 2 2 2 2 2
left_child=26 2 3 17 -4 7 22 9 12 -5 18 21 20 -9 -12 16 -8 24 19 -11 -7 -10 -3 29 -2 -25 -1 -21 -24 -20
right_child=1 6 4 5 -6 8 15 13 11 10 14 -13 -14 -15 -16 -17 -18 -19 23 27 -22 -23 28 25 -26 -27 -28 -29 -30 -31
leaf_value=-0.026954927086853188 -0.015120087966048827 0.12778902654492583 -0.026969169397393029 -0.027117045052703653 0.1522909519798446 -0.026996625596903093 0.17200201811194921 -0.027161531067861386 0.17269179053536352 -0.02723936988140704 -0.027012092456610116 -0.016570277156568239 0.11013234641106509 0.13259818144706523 0.14562426240543544 -0.027020575414457473 -0.027256308191249475 0.048689164998760574 0.15313528892035311 0.15305273327643079 0.019297419001207763 0.13413415026748746 0.15573783171325267 0.1678253016969741 -0.026972821416440987 0.15573096733334948 -0.025173799156156668 0.15683551394280243 0.15221949639828303 0.15214704148508726
leaf_weight=22330.212159559131 4.2154037952423087 6.0409341603517523 325.96758982539177 6.3914891928434363 810.64258116483688 152.3223437666893 4.9920181930065137 16.989278033375744 5.2108979821205121 3.7311614751815823 5.7580462247133255 4.7348800152540198 5.0460865944623938 4.342208817601203 5.4264838993549329 34.694968931376934 7.0747306942939758 4.6018338352441779 70.213051080703735 12.299349397420885 3.2105048894882193 5.8090344369411469 5.3901898562908164 5.0694560110568982 3142.1568900197744 7.277073860168457 111.77838932722807 10.18326100707054 3353.0543079376221 281.50386798381805
leaf_count=165991 31 24 2408 45 2954 1116 25 118 24 26 42 33 23 21 22 252 47 30 257 45 20 24 20 20 23176 27 828 38 12214 1026
internal_value=0 1.44367 0.358446 -0.143574 2.01762 1.90336 3.00031 2.77362 -0.214807 2.91308 2.96809 2.0319 -0.435237 0.107179 1.13494 -0.116194 1.10354 -0.536929 3.02062 2.5772 -0.520821 3.04733 3.04363 3.05255 -0.539139 3.21394 -0.538921 3.09532 3.0445 3.04689
internal_weight=0 8304.35 4893.1 3756.49 1136.61 605.518 3411.25 429.185 176.334 407.853 401.462 15.7548 160.579 21.3315 11.1845 46.7617 12.0667 3150.97 390.277 26.2138 155.533 11.0199 3364.49 364.063 3146.37 12.3465 22442 22.4826 3358.44 351.717
internal_count=210927 44108 31526 26164 5362 2927 12582 1687 1240 1548 1503 81 1159 139 64 324 72 23237 1439 109 1136 48 12258 1330 23207 47 166819 83 12234 1283
shrinkage=0.05


Tree=21
num_leaves=31
num_cat=0
split_feature=14 76 12 14 40 14 76 11 108 45 61 60 64 113 99 12 6 83 3 12 58 94 14 1 5 1 6 64 48 72
split_gain=46081.2 2259.57 749.918 94.8519 853.806 53.9535 34.1537 27.1048 22.5478 11.2722 705.368 4.65377 4.39681 3.53109 1.3293 1.21942 0.475439 0.339155 0.190967 0.0771032 0.0643554 0.0642235 0.0525049 0.00768686 0.00467599 0.00349064 0.0027489 0.00222876 0.001601 0.0100227
threshold=1107.2925917956225 2.3762795324898858e+17 2603.7591937928796 402.34515256472838 76.000000000000014 236.77202816188958 9302272527907714 200.53634855591278 3.6373496925000004 73.999999999999929 95.266995181346559 1.5009061849445714e-06 0.54387078550000012 1.7518756301876998e-28 1.8800000000000001e-35 2249.7104931092822 181.30691105299488 101.67325285000003 18.041775261679025 2603.7591937928796 1.9793451553809636 1.0002420637647353 242.02611481218631 74.015087926259909 9.0658893735317196 74.025357661973686 172.04164081490345 -4.6149999999999997e-18 1.0000000180025095e-35 1505913423.341831
decision_type=2 2 2 2 2 2 2 2 2 2 2 2 2 2 2 2 2 2 2 2 2 2 2 2 2 2 2 2 2 2
left_child=1 3 -2 6 19 -3 9 -8 -9 17 15 20 -6 -10 -12 -11 18 28 -17 25 -7 -22 -23 -20 26 -5 -25 -4 29 -1
right_child=2 5 27 4 12 11 7 8 13 10 14 -13 -14 -15 -16 16 -18 -19 23 -21 21 22 -24 24 -26 -27 -28 -29 -30 -31
leaf_value=-0.026492583268935534 -0.027015209278173292 -0.0093209122009396024 0.1516910435405146 0.1520667872245679 -0.027019620723038158 0.14586646412932888 -0.027097537708083971 -0.027125665888662717 0.091462992628795606 0.12724352556278809 -0.027021860120200521 0.10333382202678931 0.028467681585109407 0.154017223094674 0.0064233230096025981 0.16166147322609689 0.13766927093444856 -0.0099052723347257243 0.15326287880737419 0.14495359306145961 0.15640938304971783 0.15559145858525858 0.15069620340539475 0.15073711830167433 0.15259159933974203 0.15075396950242648 0.15185971959896072 0.15068443714894877 -0.027020492529039205 -0.026995149500257415
leaf_weight=99.847821354866028 60.178544342517853 5.5020244717597953 5.5058619678020468 5.4949359297752371 649.763976380229 6.2580206245183936 9.6744994670152682 3.3109969347715369 4.1720052510499936 6.0531378835439673 3203.1471363008022 5.3018697947263709 3.5899042934179297 4.9122273474931717 2.9737136811017981 5.2290614545345298 5.9695615321397772 2.9014910310506812 5.4604189097881308 6.0056941658258429 5.3715131580829611 5.6641216278076163 166.32670322060585 22.96524861454964 5.4797154068946829 64.462933868169785 7.1512384414672843 4418.8660254776478 7162.7877117246389 15436.671283841133
leaf_count=730 436 34 20 20 4698 23 68 23 20 23 23136 25 24 20 20 20 22 20 20 22 20 21 601 83 20 233 26 15966 51766 112767
internal_value=0 -0.496318 2.96602 -0.521036 -0.16536 2.90043 -0.531017 0.712454 1.69152 -0.532074 -0.477129 2.99033 -0.534295 2.50577 -0.539817 2.96977 3.01899 -0.539975 3.05324 3.00781 3.01699 3.02051 3.01715 3.03032 3.02496 3.01714 3.02007 3.01371 -0.540019 -0.539838
internal_weight=0 26912.4 4484.55 26718 729.317 194.424 25988.7 22.0697 12.3952 25966.6 3264.43 188.922 653.354 9.08423 3206.12 58.3084 52.2552 22702.2 46.2857 75.9636 183.62 177.362 171.991 41.0566 35.5962 69.9579 30.1165 4424.37 22699.3 15536.5
internal_count=210927 194505 16422 193781 4997 724 188784 131 63 188653 23370 690 4722 40 23156 214 191 165283 169 275 665 642 622 149 129 253 109 15986 165263 113497
shrinkage=0.05


Tree=22
num_leaves=31
num_cat=0
split_feature=66 66 13 51 11 63 5 79 103 66 103 14 10 66 75 12 64 12 80 12 61 64 14 12 13 9 33 70 12 2
split_gain=77181.7 120.323 17.6275 38.7185 20.2596 9.65967 2.78427 0.317604 0.200666 0.196887 0.162719 4.30708 0.0941568 0.00372131 0.000739923 0.000453774 0.000377739 0.000403313 0.000327485 0.000352121 0.000202788 0.000160077 0.000156083 0.000150504 0.000184799 0.000152067 0.000138248 0.000130741 8.74051e-05 0.000308617
threshold=1505913477.1969502 1505913536.4491172 95.660688105000006 3.5983367076107666 5838.8895684974077 71.912640135000018 7856.7701240429024 4.9679913669619123e+17 1.7795805013508213e-06 1505913585.3132544 2.2342480279364436e-06 176.28975426220589 63.254942695000004 1505913423.341831 1870742.6277935314 29.039503865000004 -2.069728960263488e-16 22262.225345761606 1.0199502727586889 2800.2321166403958 95.2680429105163 7.7057150412273075e-10 35.346979766138709 21762.017705509952 76.155359460349828 5117.5099586066108 345.49999980000007 1.2567334537705214e-05 30.725239805000005 5.9858365024156237
decision_type=2 2 2 2 2 2 2 2 2 2 2 2 2 2 2 2 2 2 2 2 2 2 2 2 2 2 2 2 2 2
left_child=2 -2 10 6 -5 8 7 22 -6 -3 12 -12 13 -1 16 -13 27 20 28 -20 -18 -19 -4 24 25 -17 -25 -14 29 -16
right_child=1 9 3 4 5 -7 -8 -9 -10 -11 11 15 14 -15 18 23 17 21 19 -21 -22 -23 -24 26 -26 -27 -28 -29 -30 -31
leaf_value=-0.031993383943848923 0.046189067749633689 0.076827804479554326 -0.032546423565921988 -0.032502119707296044 0.078900497673688119 0.0063241108632817013 0.00022114485816479654 -0.023241383756522876 0.068384695388952629 0.075653500093209536 0.0057715450385832767 -0.032732508189143458 -0.032325629694438723 -0.032185949424355008 -0.032300202131779497 -0.03266011352460458 -0.032331496341749123 -0.032304131519481166 -0.032804487316305073 -0.032369376872008769 -0.032318899006055453 -0.03252098384149392 -0.032313270570876386 -0.032316716857624661 -0.032324999787712423 -0.032360496398688543 -0.032046132977007098 -0.03230475634106085 -0.032333361684451944 -0.032701453969854397
leaf_weight=253.96342948079109 325.37738835811615 22583.355118811131 7.8365115821361533 9.2237216532230359 9.0892906486988121 7.5413428843021384 7.4625456631183615 10.709166765213011 9.0570938289165479 362.67334440350533 7.7231898903846732 7.2084673941135398 825.48901605606079 20714.308710694313 14.342880904674532 7.8951582014560726 4637.0186399817467 3815.2914042770863 7.6099020242691067 11.953737944364546 10270.506641507149 8.5292394161224347 85.446339666843414 10.507735699415209 140.54098451137543 9.1345776319503766 8.5711736381053907 8223.0768656730652 5974.6396732926369 7.1965368986129752
leaf_count=732 789 51439 22 26 21 20 20 30 21 828 21 20 2355 59724 41 22 13223 10902 21 34 29315 24 244 30 401 26 25 23496 17035 20
internal_value=0 1.52762 -0.644312 -0.297737 0.621239 1.07772 -0.585592 -0.627932 1.47304 1.53618 -0.645235 -0.616142 -0.645337 -0.643672 -0.64637 -0.646873 -0.646301 -0.646382 -0.646688 -0.650773 -0.646456 -0.646092 -0.646657 -0.646556 -0.646877 -0.649988 -0.643903 -0.646133 -0.646674 -0.648685
internal_weight=0 23271.4 55101.9 146.366 34.9114 25.6877 111.455 103.992 18.1464 22946 54955.5 191.581 54763.9 20968.3 33795.7 183.858 27779.9 18731.3 6015.74 19.5636 14907.5 3823.82 93.2829 176.65 157.571 17.0297 19.0789 9048.57 5996.18 21.5394
internal_count=210927 53056 157871 404 88 62 316 296 42 52267 157467 545 156922 60456 96466 524 79315 53464 17151 55 42538 10926 266 504 449 48 55 25851 17096 61
shrinkage=0.05


Tree=23
num_leaves=31
num_cat=0
split_feature=10 66 66 101 13 61 42 6 7 14 3 66 13 43 59 66 57 12 75 61 72 63 103 6 3 11 12 13 9 61
split_gain=30219.3 49138.5 187.61 6.85254 25.548 26.1749 3.71508 2.6674 1.89615 2.30343 1.78126 0.10613 0.402517 0.0890666 0.403677 0.0466905 0.00117828 0.000727886 0.000634178 0.000558395 0.000634193 0.000549093 0.000249688 0.000313369 0.000245603 0.000181757 0.000172193 0.000149218 0.000149624 0.000134554
threshold=63.254942695000004 1505913477.1969502 1505913536.4491172 2.4748759040000006 91.610970865000013 135.86103839586022 2.7050000000000006e-13 5.0816386370000011 137.87097317951748 2351.797196032077 1.251176807038707 1505913248.9497068 77.121853892396004 -1.2731124772520067e-08 77.709214455000009 1505913423.341831 1.2370124640870222e-10 2800.2321166403958 1870742.6277935314 95.266399940961847 2869129.6834277757 3.5845711547077245e-16 1.4629394531250002e-05 780.02091387235362 98.037710177434832 200.53634855591278 32.452339045000009 74.090447360403729 7086.6997892063036 131.36247505000003
decision_type=2 2 2 2 2 2 2 2 2 2 2 2 2 2 2 2 2 2 2 2 2 2 2 2 2 2 2 2 2 2
left_child=1 15 -3 8 10 6 -6 -7 11 -10 -5 13 24 14 -2 -1 19 18 26 -15 -21 27 -19 -24 -13 -22 -12 28 -18 -29
right_child=3 2 -4 4 5 7 -8 -9 9 -11 17 12 -14 16 -16 -17 21 22 -20 20 25 -23 23 -25 -26 -27 -28 29 -30 -31
leaf_value=0.068684230181837599 -0.033801186594285097 0.0046836284600174803 -0.033641534857485555 -0.010160273790335805 0.027406697323346815 -0.033825159402360382 0.071348840167089964 -0.00036562500363040675 -0.033896766526904383 -0.0067090771182958184 -0.034030016096948654 -0.033823040448612264 -0.020912539475037625 -0.033772887226165234 -0.021177780612639936 0.069276051063574665 -0.033733537279491674 -0.033787387136503554 -0.034274101465050631 -0.03375543286191144 -0.034157591921496415 -0.033761864813437903 -0.033723819117990023 -0.033384430853025442 -0.033492608183971935 -0.033870976733532739 -0.033753823241059876 -0.033739183202191915 -0.033773704635721422 -0.033580137201925812
leaf_weight=337.34476274251938 33.891727924346924 324.51659509539604 19948.590046882629 8.2825253605842573 8.5946593582630175 19.279180884361271 10.923194527626036 8.6195406913757306 17.024340659379959 14.36362010240555 8.5714026093482989 21.979210883378986 7.7148777544498435 8546.6685530841351 7.7885787785053244 27549.995075941086 364.55164089798927 135.07609581947327 13.41052260994911 11301.260014086962 11.77055934071541 3897.5653984248638 27.609104424715042 9.0246755480766279 7.5570624172687522 10.43521463871002 16.519222527742386 12278.063333064318 636.87358909845352 13.312567025423048
leaf_count=732 88 788 52252 21 20 50 24 21 44 36 22 57 20 22224 20 59724 950 351 34 29415 30 10141 72 24 20 27 43 31986 1656 35
internal_value=0 0.524141 -0.660561 -0.673641 -0.513682 0.151692 1.03998 -0.469751 -0.674786 -0.429105 -0.658078 -0.674993 -0.621644 -0.675047 -0.628846 1.38538 -0.675099 -0.676001 -0.679931 -0.675265 -0.675119 -0.674907 -0.67512 -0.672804 -0.67477 -0.680458 -0.676964 -0.67481 -0.675182 -0.67478
internal_weight=0 48160.4 20273.1 37436.7 265.91 47.4166 19.5179 27.8987 37170.8 31.388 218.494 37139.4 37.2512 37102.2 41.6803 27887.3 37060.5 210.211 38.5011 19870.1 11323.5 17190.4 171.71 36.6338 29.5363 22.2058 25.0906 13292.8 1001.43 12291.4
internal_count=210927 113496 53040 97431 682 115 44 71 96749 80 567 96669 97 96572 108 60456 96464 546 99 51696 29472 44768 447 96 77 57 65 34627 2606 32021
shrinkage=0.05


Tree=24
num_leaves=31
num_cat=0
split_feature=28 101 78 8 83 63 14 51 75 73 52 8 14 11 66 75 83 14 10 66 36 101 66 14 57 12 64 56 98 51
split_gain=57052.4 102.191 53.2561 42.4859 4.62622 2.6556 2.60624 0.584328 3.15867 0.458064 0.0744968 0.0698093 0.068009 0.018624 0.102812 0.00627535 0.0137209 0.00397339 0.00315276 0.00121932 0.0011663 0.00101147 0.000444888 0.000411101 0.00266699 0.000391745 0.000736772 0.000224005 0.000170678 0.00016309
threshold=88.097506235000012 6.9351514635596336 112.20286030000001 19177.034972701626 314.00000000000006 -6.2587972738069571e-15 173.0198776135681 3.5983367076107666 13246.795711528242 30575315812447.957 60.291998370000009 2605.7919326793617 198.41389468999026 1.0000000180025095e-35 1505913423.341831 4914.651940757024 138.20433690000002 339.82758535000011 90.992310905000025 1505913477.1969502 -1.5115076091220887e-12 2.4748759040000006 1.0225665567980788 410.31030484317313 0.390915701 28.122002545000004 0.054469819500000009 5.8946014003301281e-18 15.993745930000001 2.3208193815000002
decision_type=2 2 2 2 2 2 2 2 2 2 2 2 2 2 2 2 2 2 2 2 2 2 2 2 2 2 2 2 2 2
left_child=2 3 -1 4 6 -4 -2 9 17 10 -8 12 -12 14 -7 20 18 22 -17 -16 -14 23 -9 28 25 26 -25 -15 -22 -27
right_child=1 -3 5 -5 -6 13 7 8 -10 -11 11 -13 15 27 19 16 -18 -19 -20 -21 21 -23 -24 24 -26 29 -28 -29 -30 -31
leaf_value=0.10290780006836908 0.073608215109112904 -0.028436790753244536 0.0053225575962998111 -0.02860714053015816 0.060697956667700753 -0.027078379176828361 0.098092335479157161 0.10345245822905058 0.065495527625110031 0.11224841464936836 0.098408292077932197 0.10786315045850599 0.10338816181211788 -0.028448974307819487 -0.028366775632554887 0.10501973192247185 0.10289541707930894 0.10436314700085599 0.10376399357397348 -0.028389519641483313 0.10290912922155614 0.10336806629912243 0.10295911621802628 0.10289672646831266 0.10387390951161664 0.10290598768965833 0.10346371052708586 -0.028436146904212013 0.10315024157251261 0.10313145641360716
leaf_weight=7.7245582342147818 7.5989637970924369 14.859235942363737 5.8401130735874167 6.1495481282472602 6.5040567815303794 153.28192363679409 8.0152561366558057 7.3303378224372926 6.675087332725524 13.150510370731352 8.3787018656730634 7.121842920780181 12.833516180515288 5422.5814813375473 12494.333466053009 11.608164966106417 41.568873763084412 10.200927048921583 8.7783199250698072 11153.090987727046 10216.558024197817 12.101632773876188 12.134469091892241 13.610930740833284 8.0410282611846906 158.5392532646656 9.8951996564865095 9140.364046677947 7.3449617624282828 8.4477345645427686
leaf_count=21 23 70 25 28 20 730 22 20 20 38 23 20 35 25450 59724 32 113 28 24 53040 27775 33 33 37 22 431 27 43020 20 23
internal_value=0 2.05188 -0.567297 2.05555 2.05708 -0.567825 2.05759 2.05801 1.93143 2.05845 2.05822 2.05829 2.05822 -0.567928 -0.567383 2.0583 2.06833 2.07128 2.08958 -0.56755 2.05824 2.05822 2.0629 2.05821 2.05964 2.05889 2.06271 -0.568818 2.05819 2.05835
internal_weight=0 10617.4 38377.2 10602.6 10596.4 38369.5 10589.9 10582.3 36.3408 10546 10532.8 10524.8 10517.7 38363.7 23800.7 10509.3 61.9554 29.6657 20.3865 23647.4 10447.4 10434.5 19.4648 10422.4 198.534 190.493 23.5061 14562.9 10223.9 166.987
internal_count=210927 28917 182010 28847 28819 181989 28799 28776 101 28675 28637 28615 28595 181964 113494 28572 169 81 56 112764 28403 28368 53 28335 540 518 64 68470 27795 454
shrinkage=0.05


Tree=25
num_leaves=31
num_cat=0
split_feature=51 63 13 70 9 64 60 61 63 9 10 14 53 9 43 2 10 5 31 5 7 49 35 57 56 82 63 64 42 0
split_gain=42647.1 8859.43 1744.52 1569.3 1333.46 577.018 505.686 584.691 422.22 397.706 207.979 1029.61 501.558 189.522 150.641 294.181 135.544 130.086 95.9659 208.088 82.7654 81.8699 80.1441 22.1371 14.3756 6.03905 1.62755 1.35336 0.336368 1.59763
threshold=454.40302857060743 3.5845711547077245e-16 74.090447360403729 1.2567334537705214e-05 7086.6997892063036 5.850633397145856e-10 6.3279798797182092e-06 95.268042910516343 -8.0939362256455778e-16 2970.0487639482849 74.565301555756463 241.22787895000002 0.20800998638043269 2281.3389708220016 -2.4174028443539182e-12 1606.3626710914521 74.546464455717185 13.241962584453177 73.999999994902922 17.615773763676682 74.06678986564286 1.0000000180025095e-35 -6.0088242337580866e-28 0.85058729611429429 -1.4307407958712609e-28 1.4153675942975627e-05 7.5050000000000008e-30 -2.2147438731981166e-09 -4.4770443532527065e-21 163.83597786981946
decision_type=2 2 2 2 2 2 2 2 2 2 2 2 2 2 2 2 2 2 2 2 2 2 2 2 2 2 2 2 2 2
left_child=13 2 4 8 6 9 7 20 -4 22 27 -12 14 -1 15 18 -10 -7 -13 -20 -2 -9 -5 24 -15 26 -26 -11 29 -16
right_child=1 -3 3 5 -6 17 -8 21 16 10 11 12 -14 23 28 -17 -18 -19 19 -21 -22 -23 -24 -25 25 -27 -28 -29 -30 -31
leaf_value=-0.029160724175200454 -0.029263452444376212 -0.029233855519880642 0.093216846408975693 0.095973810266946874 -0.029234311497878591 0.096192094633953992 0.093218595097867452 -0.029674443000015441 0.09320843151815042 0.073690781350808615 -0.02934382977370853 0.093261569730061417 -0.029324418222062595 0.0069762427764202897 0.066938855998387073 -0.029232929010623906 -0.029233490007168541 -0.029271609096896547 0.093236253778595388 -0.029281628705252246 0.0934351449123281 0.094164481927572929 -0.029253695144990224 -0.029918637574434276 0.075385929396313944 0.046677397252711215 0.10187052196984668 0.093240123922595716 0.093259227812375819 0.093245688299142065
leaf_weight=39098.833621785045 262.91604842245579 2202.8358621299267 96.954899936914444 15.015184372663496 605.68025530874729 24.607528239488602 616.26464241743088 14.267234891653059 23.94569793343544 8.8614977002143842 206.24435819685459 342.57449001073837 92.533516094088554 6.5020360648632041 6.9962051510810843 72.318439334630966 402.99041147530079 128.79672485589981 87.522640824317932 57.376390770077705 14.501971751451491 206.68055242300034 85.694133892655373 5.4905863702297202 7.443160578608512 7.5952287316322318 26.289391279220581 9176.7269948422909 2869.3430873453617 32.96605384349823
leaf_count=159653 1057 8893 247 39 2445 64 1570 55 61 24 821 873 370 20 20 292 1627 517 223 230 37 530 345 20 22 22 71 23383 7312 84
internal_value=0 1.29149 1.55896 1.67789 0.609662 1.74522 1.25866 0.509656 -0.0195096 1.76788 1.78327 1.58543 1.71122 -0.580645 1.77251 1.29745 -0.447321 -0.18292 1.57667 0.894445 -0.456988 1.72336 -0.21166 1.30338 1.52169 1.73914 1.92053 1.86443 1.86392 1.7728
internal_weight=0 17654.6 15451.8 13731.5 1720.31 13207.6 1114.63 498.366 523.891 13054.2 12953.5 3767.88 3561.63 39152.2 3469.1 559.792 426.936 153.404 487.474 144.899 277.418 220.948 100.709 53.3204 47.8298 41.3278 33.7326 9185.59 2909.31 39.9623
internal_count=210927 51119 42226 36532 5694 34597 3249 1679 1935 34016 33632 10225 9404 159808 9034 1618 1688 581 1326 453 1094 585 384 155 135 115 93 23407 7416 104
shrinkage=0.05


Tree=26
num_leaves=31
num_cat=0
split_feature=76 63 58 47 7 54 13 70 59 14 48 6 12 7 35 12 10 35 35 12 37 39 36 61 56 3 57 66 5 1
split_gain=21613.7 10863.9 3502.98 2712.65 2345.84 930.951 344.89 158.25 39.9879 37.8302 36.8731 36.1497 31.8336 30.7814 16.9304 16.1857 18.4439 10.0032 5.81176 2.60901 1.36588 0.703156 0.540841 0.492023 0.950726 0.359325 0.239516 0.14485 0.0270278 0.0148444
threshold=7149298491307.7109 2.7599546783204805e-16 20714.290729668417 95.268042910424683 74.110435234942784 95.268042910516343 74.352447059420527 592515245778315.62 74.000000000000071 222.07925169711015 2.5044149551169421e-11 809.43334592937856 30653.681013771497 74.055603801068983 -1.6364884476601308e-27 21026.577060256266 74.574560280343675 1.6323637528368743e-15 1.73615718726575e-29 7347.9424031483259 12.634408834387454 3.9890986980137573e-06 7.5841939318980129e-16 95.268042910516456 -2.2249999999999998e-29 293.85819841961256 -4.4163547283721682e-11 1505913585.3132544 2.0182976848050624 74.018873551851229
decision_type=2 2 2 2 2 2 2 2 2 2 2 2 2 2 2 2 2 2 2 2 2 2 2 2 2 2 2 2 2 2
left_child=27 2 3 17 -4 8 12 11 10 18 21 19 20 -10 -12 -8 -17 26 -9 25 -3 23 -20 -5 -25 -7 -2 -1 -6 -24
right_child=1 6 4 5 28 7 15 9 13 -11 14 -13 -14 -15 -16 16 -18 -19 22 -21 -22 -23 29 24 -26 -27 -28 -29 -30 -31
leaf_value=-0.026888366088127287 -0.014886759006356824 0.15612503678474632 -0.026906433174845829 0.1310799053400119 0.13421392953017741 -0.026930721042532208 -0.026982725321125584 0.075289896990753502 0.12722696694864796 -0.027113399753732132 -0.027010343345069 0.1020442531808603 -0.027389322014244145 -0.026997498513314112 0.10114272042194197 -0.027320887217394174 0.12292139076379414 0.045279824164758183 0.15229252276728233 0.018543721182414079 0.13090742321354989 0.1138691627549642 0.1320754145610574 0.13426559920614653 0.10633637105102267 -0.0085983650903289025 -0.026911625923298557 -0.025058083869445025 0.13094441355835648 0.13526152981169434
leaf_weight=21676.235401630402 4.1466893851757041 5.3772761523723593 317.05583210289478 407.16857281327248 6.3653818666934958 161.86723832786083 34.560997046530247 4.3567561656236711 5.7108778357505781 4.6799079403281203 5.335761696100235 5.7223908901214591 3.1772393733263007 7.463731437921524 4.9849674403667432 3.9084462225437147 4.2792380452156067 4.8082392513751975 5.4847727417945888 3.2598729878664008 3782.2354909479618 6.235923320055007 6.1380740702152243 6.364127904176712 5.846003592014311 2.7178321331739417 3058.5394701063633 108.64123842865229 906.12020209431648 9.0397147834300977
leaf_count=165991 31 20 2408 1319 21 1219 256 24 20 33 39 24 20 55 21 26 20 30 20 20 12240 22 20 21 20 20 23176 828 2933 30
internal_value=0 1.32064 0.341839 -0.141831 1.80514 1.70989 2.58436 -0.0657607 2.51355 2.06728 2.56542 -0.430747 2.61621 0.797102 0.697765 -0.240158 1.02404 -0.535644 2.5554 -0.515013 2.61886 2.61071 2.77672 2.61567 2.41787 -0.53256 -0.537907 -0.537585 2.61934 2.67946
internal_weight=0 8782.95 4949.41 3719.87 1229.54 652.377 3833.54 203.267 449.11 29.6992 435.935 173.567 3790.79 13.1746 10.3207 42.7487 8.18768 3067.49 25.0193 167.845 3787.61 425.615 20.6626 419.379 12.2101 164.585 3062.69 21784.9 912.486 15.1778
internal_count=210927 44108 31526 26164 5362 2927 12582 1410 1517 127 1442 1283 12280 75 60 302 46 23237 94 1259 12260 1382 70 1360 41 1239 23207 166819 2954 50
shrinkage=0.05


Tree=27
num_leaves=31
num_cat=0
split_feature=29 76 9 29 33 29 76 11 108 45 61 57 60 113 99 12 1 83 3 6 11 94 29 6 12 4 1 48 66 64
split_gain=39343.3 1977.81 568.694 94.1281 734.395 40.6244 32.7096 23.6008 18.1861 11.3119 615.843 4.35989 3.31022 2.47503 1.31728 0.828099 0.362455 0.342001 0.111229 0.0679718 0.0450464 0.0377492 0.0308355 0.00865789 0.00722505 0.00295631 0.00667157 0.00250138 0.0103273 0.00173535
threshold=1107.2925917956225 2.3762795324898858e+17 522.89093430843843 402.34515256472838 76.000000000000014 236.77202816188958 9302272527907714 200.53634855591278 3.6373496925000004 73.999999999999929 95.266995181346559 0.45780245500000011 1.5009061849445714e-06 1.7518756301876998e-28 1.8800000000000001e-35 2249.7104931092822 74.014709046715225 101.67325285000003 18.041775261679025 257.48951596165165 492.8496018365359 1.0002420637647353 242.02611481218631 181.30691105299488 2603.7591937928796 74.18296233610333 74.218153454136285 1.0000000180025095e-35 1505913423.341831 -4.6149999999999997e-18
decision_type=2 2 2 2 2 2 2 2 2 2 2 2 2 2 2 2 2 2 2 2 2 2 2 2 2 2 2 2 2 2
left_child=1 3 -2 6 19 -3 9 -8 -9 17 15 -6 20 -10 -12 -11 -17 27 -18 24 21 -7 -23 25 -5 -20 -27 28 -1 -4
right_child=2 5 29 4 11 12 7 8 13 10 14 -13 -14 -15 -16 16 18 -19 23 -21 -22 22 -24 -25 -26 26 -28 -29 -30 -31
leaf_value=-0.026406222655894429 -0.02695207997440055 -0.009188654240734383 0.13062068767835311 0.12983360162905894 -0.026954301253012836 0.13393179880129122 -0.027035193502705952 -0.027056764680097642 0.081934521924785911 0.11136690721981571 -0.026958649134501928 0.028363461973775414 0.091580464973774728 0.13175785827457628 0.0062629499927190496 0.11832030507519747 0.13769545409828521 -0.0096572692554323398 0.12979661157120509 0.12485656386718019 0.12641415777282639 0.13334021310332078 0.12980961480334846 0.13218503092501807 0.13157884998657562 0.13189059970686798 0.12989045788425291 -0.026957201872934058 -0.0269243072189711 0.12978301970343104
leaf_weight=96.811244770884514 58.555132672190666 5.4674952030181876 6.1904748082160941 71.830387800931931 632.11417999863625 6.0726976394653311 9.4270373582839984 3.2203007042407981 4.5164307653903943 6.6969647556543341 3117.5710350573063 3.5821261405944815 5.7958947867155066 5.5626311600208282 2.9866992384195319 6.0385488569736472 5.9436661005020133 2.8653629869222632 23.015591621398926 7.0640670061111441 8.8993299156427366 6.3981834053993216 185.04371452331543 6.1343551576137534 6.4637963771820059 6.7593164145946529 10.87976238131523 6970.9930177032948 14966.953191190958 4966.1664916872978
leaf_count=730 436 34 20 231 4700 20 68 23 20 23 23136 22 25 20 20 20 20 20 74 23 29 21 595 20 21 22 35 51766 112767 15966
internal_value=0 -0.494134 2.5592 -0.519296 -0.163042 2.50761 -0.529471 0.669687 1.52765 -0.530552 -0.474856 -0.532852 2.57695 2.18864 -0.538537 2.56051 2.59848 -0.538604 2.62505 2.59108 2.59788 2.60101 2.59855 2.60868 2.59955 2.6034 2.61314 -0.538649 -0.53842 2.59568
internal_weight=0 26185.1 5030.91 25967.4 721.055 217.677 25246.4 22.7264 13.2994 25223.6 3186.03 635.696 212.21 10.0791 3120.56 65.4682 58.7712 22037.6 52.7327 85.3583 206.414 197.515 191.442 46.789 78.2942 40.6547 17.6391 22034.8 15063.8 4972.36
internal_count=210927 194505 16422 193781 4997 724 188784 131 63 188653 23370 4722 690 40 23156 214 191 165283 171 275 665 636 616 151 252 131 57 165263 113497 15986
shrinkage=0.05


Tree=28
num_leaves=31
num_cat=0
split_feature=69 66 13 51 11 63 5 79 91 27 87 66 70 75 10 63 56 42 76 27 80 13 70 14 9 27 27 35 2 64
split_gain=70635.7 99.4869 17.3212 36.5992 18.4547 8.49093 2.72574 0.317081 0.193382 0.16966 4.62264 0.169489 0.128293 0.00156573 0.00101957 0.000770534 0.000510693 0.000371362 0.000356041 0.000259295 0.000439264 0.000239994 0.000217926 0.000191331 0.000187445 0.000166304 0.000161148 0.000141107 0.000205021 0.000105795
threshold=1505913477.2059817 1505913536.4491172 95.660688105000006 3.5983367076107666 5838.8895684974077 71.912640135000018 7856.7701240429024 4.9679913669619123e+17 3.1052091456996053e-12 25.559685835000003 1.0000002055000003 1505913585.3132544 31.693754743613059 1870742.6277935314 63.254942695000004 3.5845711547077245e-16 5.8946014003301281e-18 3.0847983298572511e-25 445541.42677081464 20548.675603250624 1.0291897720610199 74.090447360403729 1.2567334537705214e-05 35.346979766138709 7086.6997892063036 3020.8777734656151 3020.8777734656151 8.2862879615947355e-15 236.45776429926855 7.7057150412273075e-10
decision_type=2 2 2 2 2 2 2 2 2 2 2 2 2 2 2 2 2 2 2 2 2 2 2 2 2 2 2 2 2 2
left_child=2 -2 9 6 -5 8 7 23 -6 10 12 -3 14 15 -1 16 -11 19 -17 20 -15 24 -23 -4 -18 -22 -19 29 -29 -24
right_child=1 11 3 4 5 -7 -8 -9 -10 13 -12 -13 -14 17 -16 18 21 26 -20 -21 25 22 27 -25 -26 -27 -28 28 -30 -31
leaf_value=-0.031832744069070017 0.043972578828417409 0.071562347316915798 -0.032255089306878329 -0.032180718706068139 0.073591517319040206 0.0060549748492859492 0.00025895132735416357 -0.022850833891680841 0.063428787739295653 -0.032000395698152564 0.0078983656283912358 0.070491494278549893 -0.025036879235683103 -0.032022384673568494 -0.032005109146654914 -0.031998936328168866 -0.031976329607982724 -0.032380393431714609 -0.032021656259581942 -0.031780893660567557 -0.032447646064413714 -0.032013346116583893 -0.031979926728572118 -0.031994134855835292 -0.032022514898993347 -0.032145158991390956 -0.032104049987407318 -0.03195886684631493 -0.032331212381763959 -0.032050169063308126
